{"learner":{"attributes":{"scikit_learn":"{\"_estimator_type\": \"classifier\"}"},"feature_names":["Gender","Married","Dependents","Education","Self_Employed","LoanAmount","Loan_Amount_Term","Credit_History","Property_Area","ApplicantIncomeLog","CoapplicantIncomeLog","Total_income_log"],"feature_types":["int","int","int","int","int","float","float","float","int","float","float","float"],"gradient_booster":{"model":{"gbtree_model_param":{"num_parallel_tree":"1","num_trees":"100"},"iteration_indptr":[0,1,2,3,4,5,6,7,8,9,10,11,12,13,14,15,16,17,18,19,20,21,22,23,24,25,26,27,28,29,30,31,32,33,34,35,36,37,38,39,40,41,42,43,44,45,46,47,48,49,50,51,52,53,54,55,56,57,58,59,60,61,62,63,64,65,66,67,68,69,70,71,72,73,74,75,76,77,78,79,80,81,82,83,84,85,86,87,88,89,90,91,92,93,94,95,96,97,98,99,100],"tree_info":[0,0,0,0,0,0,0,0,0,0,0,0,0,0,0,0,0,0,0,0,0,0,0,0,0,0,0,0,0,0,0,0,0,0,0,0,0,0,0,0,0,0,0,0,0,0,0,0,0,0,0,0,0,0,0,0,0,0,0,0,0,0,0,0,0,0,0,0,0,0,0,0,0,0,0,0,0,0,0,0,0,0,0,0,0,0,0,0,0,0,0,0,0,0,0,0,0,0,0,0],"trees":[{"base_weights":[-6.152802E-8,-1.8406783E0,6.8368053E-1,3.238402E-2,1.0067602E0],"categories":[],"categories_nodes":[],"categories_segments":[],"categories_sizes":[],"default_left":[0,0,0,0,0],"id":0,"left_children":[1,-1,3,-1,-1],"loss_changes":[1.9631398E2,0E0,2.3902496E1,0E0,0E0],"parents":[2147483647,0,0,2,2],"right_children":[2,-1,4,-1,-1],"split_conditions":[1E0,-1.8406783E0,1E0,3.238402E-2,1.0067602E0],"split_indices":[7,0,8,0,0],"split_type":[0,0,0,0,0],"sum_hessian":[1.5399838E2,4.1249565E1,1.1274881E2,3.7749603E1,7.499921E1],"tree_param":{"num_deleted":"0","num_feature":"12","num_nodes":"5","size_leaf_vector":"1"}},{"base_weights":[-9.2272E-2,-6.055479E-1,2.6735067E-1,-8.571675E-1,6.5380685E-2,-8.749611E-1,4.76331E-1],"categories":[],"categories_nodes":[],"categories_segments":[],"categories_sizes":[],"default_left":[0,0,0,0,0,0,0],"id":1,"left_children":[1,3,5,-1,-1,-1,-1],"loss_changes":[2.1749899E1,8.242016E0,1.6999298E1,0E0,0E0,0E0,0E0],"parents":[2147483647,0,0,1,1,2,2],"right_children":[2,4,6,-1,-1,-1,-1],"split_conditions":[1E0,1.4190676E1,1E0,-8.571675E-1,6.5380685E-2,-8.749611E-1,4.76331E-1],"split_indices":[1,10,7,0,0,0,0],"split_type":[0,0,0,0,0,0,0],"sum_hessian":[1.15953865E2,4.7489723E1,6.846414E1,3.4335308E1,1.3154415E1,1.0095284E1,5.8368855E1],"tree_param":{"num_deleted":"0","num_feature":"12","num_nodes":"7","size_leaf_vector":"1"}},{"base_weights":[-1.1924185E-2,2.874408E-1,-6.36508E-1,-7.1663624E-1,4.1930485E-1,-8.9231354E-1,1.4376493E-1],"categories":[],"categories_nodes":[],"categories_segments":[],"categories_sizes":[],"default_left":[0,0,0,0,0,0,0],"id":2,"left_children":[1,3,5,-1,-1,-1,-1],"loss_changes":[1.9085348E1,9.439878E0,6.728224E0,0E0,0E0,0E0,0E0],"parents":[2147483647,0,0,1,1,2,2],"right_children":[2,4,6,-1,-1,-1,-1],"split_conditions":[1.5818953E5,1E0,2E0,-7.1663624E-1,4.1930485E-1,-8.9231354E-1,1.4376493E-1],"split_indices":[5,7,2,0,0,0,0],"split_type":[0,0,0,0,0,0,0],"sum_hessian":[1.000939E2,6.802776E1,3.2066135E1,7.3821106E0,6.0645653E1,2.4040936E1,8.0252E0],"tree_param":{"num_deleted":"0","num_feature":"12","num_nodes":"7","size_leaf_vector":"1"}},{"base_weights":[-4.0532663E-4,-5.036125E-1,1.6843775E-1,4.8946318E-1,-8.451311E-1,-1.1838639E0,2.6813826E-1],"categories":[],"categories_nodes":[],"categories_segments":[],"categories_sizes":[],"default_left":[0,0,0,0,0,0,0],"id":3,"left_children":[1,3,5,-1,-1,-1,-1],"loss_changes":[7.7722135E0,8.208174E0,9.55255E0,0E0,0E0,0E0,0E0],"parents":[2147483647,0,0,1,1,2,2],"right_children":[2,4,6,-1,-1,-1,-1],"split_conditions":[1E5,6.2E4,1.5079354E1,4.8946318E-1,-8.451311E-1,-1.1838639E0,2.6813826E-1],"split_indices":[5,5,11,0,0,0,0],"split_type":[0,0,0,0,0,0,0],"sum_hessian":[8.9479164E1,2.1982237E1,6.749693E1,5.5143332E0,1.6467903E1,3.887953E0,6.360898E1],"tree_param":{"num_deleted":"0","num_feature":"12","num_nodes":"7","size_leaf_vector":"1"}},{"base_weights":[6.866013E-3,1.08879E-1,-4.9690714E-1,1.6446306E-1,-1.0847545E0,-9.6540785E-1,4.3530098E-1],"categories":[],"categories_nodes":[],"categories_segments":[],"categories_sizes":[],"default_left":[0,0,0,0,0,0,0],"id":4,"left_children":[1,3,5,-1,-1,-1,-1],"loss_changes":[4.610964E0,5.1251144E0,7.020046E0,0E0,0E0,0E0,0E0],"parents":[2147483647,0,0,1,1,2,2],"right_children":[2,4,6,-1,-1,-1,-1],"split_conditions":[2.1169636E5,3.7111612E2,3.12E5,1.6446306E-1,-1.0847545E0,-9.6540785E-1,4.3530098E-1],"split_indices":[5,6,5,0,0,0,0],"split_type":[0,0,0,0,0,0,0],"sum_hessian":[8.7669716E1,7.3558205E1,1.4111507E1,7.110908E1,2.4491274E0,9.367872E0,4.7436347E0],"tree_param":{"num_deleted":"0","num_feature":"12","num_nodes":"7","size_leaf_vector":"1"}},{"base_weights":[-1.5470177E-2,-1.2334338E0,2.9548928E-2,3.475892E-1,-1.2468651E-1],"categories":[],"categories_nodes":[],"categories_segments":[],"categories_sizes":[],"default_left":[0,0,0,0,0],"id":5,"left_children":[1,-1,3,-1,-1],"loss_changes":[4.728831E0,0E0,4.1394787E0,0E0,0E0],"parents":[2147483647,0,0,2,2],"right_children":[2,-1,4,-1,-1],"split_conditions":[1.4723366E1,-1.2334338E0,1.50214815E1,3.475892E-1,-1.2468651E-1],"split_indices":[11,0,9,0,0],"split_type":[0,0,0,0,0],"sum_hessian":[8.457805E1,2.0738313E0,8.250422E1,2.6534754E1,5.5969463E1],"tree_param":{"num_deleted":"0","num_feature":"12","num_nodes":"5","size_leaf_vector":"1"}},{"base_weights":[-7.239903E-3,2.3414762E-1,-2.1324843E-1,1.7815154E-2,8.9679813E-1,-1.4299192E0,1.7633298E-2],"categories":[],"categories_nodes":[],"categories_segments":[],"categories_sizes":[],"default_left":[0,0,0,0,0,0,0],"id":6,"left_children":[1,3,5,-1,-1,-1,-1],"loss_changes":[4.2349353E0,5.607493E0,1.292725E1,0E0,0E0,0E0,0E0],"parents":[2147483647,0,0,1,1,2,2],"right_children":[2,4,6,-1,-1,-1,-1],"split_conditions":[5.2256846E-1,1.65E5,1.3441545E1,1.7815154E-2,8.9679813E-1,-1.4299192E0,1.7633298E-2],"split_indices":[10,5,10,0,0,0,0],"split_type":[0,0,0,0,0,0,0],"sum_hessian":[8.315809E1,3.8228176E1,4.492991E1,2.959373E1,8.634445E0,6.3379097E0,3.8592E1],"tree_param":{"num_deleted":"0","num_feature":"12","num_nodes":"7","size_leaf_vector":"1"}},{"base_weights":[-2.2103656E-2,-5.186144E-1,5.5637475E-2,-8.4252566E-1,5.657706E-1,1.4861742E-1,-6.2266684E-1],"categories":[],"categories_nodes":[],"categories_segments":[],"categories_sizes":[],"default_left":[0,0,0,0,0,0,0],"id":7,"left_children":[1,3,5,-1,-1,-1,-1],"loss_changes":[3.1880207E0,4.40251E0,4.6125607E0,0E0,0E0,0E0,0E0],"parents":[2147483647,0,0,1,1,2,2],"right_children":[2,4,6,-1,-1,-1,-1],"split_conditions":[3.6E2,1.5641982E1,2.6E5,-8.4252566E-1,5.657706E-1,1.4861742E-1,-6.2266684E-1],"split_indices":[6,9,5,0,0,0,0],"split_type":[0,0,0,0,0,0,0],"sum_hessian":[8.084515E1,1.0176928E1,7.066822E1,8.007952E0,2.1689768E0,6.283578E1,7.832443E0],"tree_param":{"num_deleted":"0","num_feature":"12","num_nodes":"7","size_leaf_vector":"1"}},{"base_weights":[-5.0517404E-3,-1.1180625E-1,5.181179E-1,1.3443696E-1,-3.6488643E-1,7.454043E-1,-4.4278586E-1],"categories":[],"categories_nodes":[],"categories_segments":[],"categories_sizes":[],"default_left":[0,0,0,0,0,0,0],"id":8,"left_children":[1,3,5,-1,-1,-1,-1],"loss_changes":[4.52287E0,4.238058E0,3.3277736E0,0E0,0E0,0E0,0E0],"parents":[2147483647,0,0,1,1,2,2],"right_children":[2,4,6,-1,-1,-1,-1],"split_conditions":[1.4918447E1,1.27E5,1.627219E1,1.3443696E-1,-3.6488643E-1,7.454043E-1,-4.4278586E-1],"split_indices":[10,5,11,0,0,0,0],"split_type":[0,0,0,0,0,0,0],"sum_hessian":[7.8944214E1,6.6218414E1,1.2725798E1,3.380016E1,3.241825E1,1.0472875E1,2.2529233E0],"tree_param":{"num_deleted":"0","num_feature":"12","num_nodes":"7","size_leaf_vector":"1"}},{"base_weights":[1.2266584E-2,-1.0212792E0,8.140147E-2,-2.7779284E-1,-1.4152191E0,-7.913927E-2,3.2830805E-1],"categories":[],"categories_nodes":[],"categories_segments":[],"categories_sizes":[],"default_left":[0,0,0,0,0,0,0],"id":9,"left_children":[1,3,5,-1,-1,-1,-1],"loss_changes":[5.6582837E0,1.0612655E0,2.961556E0,0E0,0E0,0E0,0E0],"parents":[2147483647,0,0,1,1,2,2],"right_children":[2,4,6,-1,-1,-1,-1],"split_conditions":[1.4538217E1,1.08E5,1.5408209E1,-2.7779284E-1,-1.4152191E0,-7.913927E-2,3.2830805E-1],"split_indices":[9,5,9,0,0,0,0],"split_type":[0,0,0,0,0,0,0],"sum_hessian":[7.7024254E1,3.9657161E0,7.305853E1,1.9640713E0,2.0016448E0,4.468406E1,2.8374475E1],"tree_param":{"num_deleted":"0","num_feature":"12","num_nodes":"7","size_leaf_vector":"1"}},{"base_weights":[-1.1284708E-2,-2.1049958E-1,1.1365803E-1,4.40732E-2,-5.180435E-1,5.193527E-2,8.2152426E-1],"categories":[],"categories_nodes":[],"categories_segments":[],"categories_sizes":[],"default_left":[0,0,0,0,0,0,0],"id":10,"left_children":[1,3,5,-1,-1,-1,-1],"loss_changes":[1.9734865E0,2.4139054E0,2.0888367E0,0E0,0E0,0E0,0E0],"parents":[2147483647,0,0,1,1,2,2],"right_children":[2,4,6,-1,-1,-1,-1],"split_conditions":[1E0,1E0,2.8E5,4.40732E-2,-5.180435E-1,5.193527E-2,8.2152426E-1],"split_indices":[8,2,5,0,0,0,0],"split_type":[0,0,0,0,0,0,0],"sum_hessian":[7.7325676E1,2.9540337E1,4.778534E1,1.6630749E1,1.2909588E1,4.494013E1,2.8452091E0],"tree_param":{"num_deleted":"0","num_feature":"12","num_nodes":"7","size_leaf_vector":"1"}},{"base_weights":[6.727831E-3,-8.4689036E-2,3.266011E-1,4.2253774E-2,-3.9726394E-1,8.296485E-1,7.982304E-2],"categories":[],"categories_nodes":[],"categories_segments":[],"categories_sizes":[],"default_left":[0,0,0,0,0,0,0],"id":11,"left_children":[1,3,5,-1,-1,-1,-1],"loss_changes":[2.2717226E0,2.416518E0,2.0768406E0,0E0,0E0,0E0,0E0],"parents":[2147483647,0,0,1,1,2,2],"right_children":[2,4,6,-1,-1,-1,-1],"split_conditions":[2E0,1.58061075E1,1.5329538E1,4.2253774E-2,-3.9726394E-1,8.296485E-1,7.982304E-2],"split_indices":[2,11,11,0,0,0,0],"split_type":[0,0,0,0,0,0,0],"sum_hessian":[7.5741585E1,5.9478428E1,1.6263151E1,4.2914734E1,1.6563696E1,4.5750895E0,1.1688063E1],"tree_param":{"num_deleted":"0","num_feature":"12","num_nodes":"7","size_leaf_vector":"1"}},{"base_weights":[1.3290515E-2,-3.6815935E-1,9.864724E-2,-1.0691137E-1,-9.477439E-1,-1.2827552E-2,3.4904316E-1],"categories":[],"categories_nodes":[],"categories_segments":[],"categories_sizes":[],"default_left":[0,0,0,0,0,0,0],"id":12,"left_children":[1,3,5,-1,-1,-1,-1],"loss_changes":[2.5047352E0,2.02968E0,1.7557018E0,0E0,0E0,0E0,0E0],"parents":[2147483647,0,0,1,1,2,2],"right_children":[2,4,6,-1,-1,-1,-1],"split_conditions":[8.4E4,8E4,1.5872579E1,-1.0691137E-1,-9.477439E-1,-1.2827552E-2,3.4904316E-1],"split_indices":[5,5,11,0,0,0,0],"split_type":[0,0,0,0,0,0,0],"sum_hessian":[7.481295E1,1.3073905E1,6.173904E1,9.82827E0,3.2456353E0,4.3376743E1,1.8362299E1],"tree_param":{"num_deleted":"0","num_feature":"12","num_nodes":"7","size_leaf_vector":"1"}},{"base_weights":[-1.1701542E-2,9.3467295E-2,-1.9309413E-1,4.125471E-2,9.2284095E-1,-7.819018E-1,-4.3674156E-2],"categories":[],"categories_nodes":[],"categories_segments":[],"categories_sizes":[],"default_left":[0,0,0,0,0,0,0],"id":13,"left_children":[1,3,5,-1,-1,-1,-1],"loss_changes":[1.4501511E0,2.048869E0,2.4184716E0,0E0,0E0,0E0,0E0],"parents":[2147483647,0,0,1,1,2,2],"right_children":[2,4,6,-1,-1,-1,-1],"split_conditions":[1.5818953E5,1.6214844E1,1.4995396E1,4.125471E-2,9.2284095E-1,-7.819018E-1,-4.3674156E-2],"split_indices":[5,11,9,0,0,0,0],"split_type":[0,0,0,0,0,0,0],"sum_hessian":[7.4070206E1,4.7193066E1,2.6877142E1,4.5385593E1,1.8074734E0,4.5832753E0,2.2293867E1],"tree_param":{"num_deleted":"0","num_feature":"12","num_nodes":"7","size_leaf_vector":"1"}},{"base_weights":[4.605581E-3,7.3228985E-2,-3.9497772E-1,2.5186295E-2,8.391612E-1,-6.093191E-1,2.5957388E-1],"categories":[],"categories_nodes":[],"categories_segments":[],"categories_sizes":[],"default_left":[0,0,0,0,0,0,0],"id":14,"left_children":[1,3,5,-1,-1,-1,-1],"loss_changes":[2.0469396E0,2.3210793E0,1.6934216E0,0E0,0E0,0E0,0E0],"parents":[2147483647,0,0,1,1,2,2],"right_children":[2,4,6,-1,-1,-1,-1],"split_conditions":[1.614969E1,1.60648E1,1E0,2.5186295E-2,8.391612E-1,-6.093191E-1,2.5957388E-1],"split_indices":[11,11,4,0,0,0,0],"split_type":[0,0,0,0,0,0,0],"sum_hessian":[7.259443E1,6.265155E1,9.942879E0,5.9925632E1,2.72592E0,7.5421944E0,2.4006846E0],"tree_param":{"num_deleted":"0","num_feature":"12","num_nodes":"7","size_leaf_vector":"1"}},{"base_weights":[9.318555E-3,-3.8798958E-1,4.961247E-2,9.824657E-2,-1.0405983E0,2.2754708E-1,-1.0512588E-1],"categories":[],"categories_nodes":[],"categories_segments":[],"categories_sizes":[],"default_left":[0,0,0,0,0,0,0],"id":15,"left_children":[1,3,5,-1,-1,-1,-1],"loss_changes":[1.1861988E0,2.2680433E0,1.8705146E0,0E0,0E0,0E0,0E0],"parents":[2147483647,0,0,1,1,2,2],"right_children":[2,4,6,-1,-1,-1,-1],"split_conditions":[7E4,6.2E4,1.5201805E1,9.824657E-2,-1.0405983E0,2.2754708E-1,-1.0512588E-1],"split_indices":[5,5,9,0,0,0,0],"split_type":[0,0,0,0,0,0,0],"sum_hessian":[7.189289E1,5.825271E0,6.606762E1,3.824915E0,2.0003562E0,3.0511606E1,3.5556015E1],"tree_param":{"num_deleted":"0","num_feature":"12","num_nodes":"7","size_leaf_vector":"1"}},{"base_weights":[-1.0624002E-2,-1.1670263E-1,1.5665726E-1,-7.2850496E-1,-3.2440957E-2,1.2332704E0,7.208974E-2],"categories":[],"categories_nodes":[],"categories_segments":[],"categories_sizes":[],"default_left":[0,0,0,0,0,0,0],"id":16,"left_children":[1,3,5,-1,-1,-1,-1],"loss_changes":[1.2942935E0,2.2743795E0,2.4905598E0,0E0,0E0,0E0,0E0],"parents":[2147483647,0,0,1,1,2,2],"right_children":[2,4,6,-1,-1,-1,-1],"split_conditions":[1.5361955E1,9.9495745E-1,1.5411053E1,-7.2850496E-1,-3.2440957E-2,1.2332704E0,7.208974E-2],"split_indices":[9,7,11,0,0,0,0],"split_type":[0,0,0,0,0,0,0],"sum_hessian":[7.090834E1,4.3577038E1,2.7331299E1,4.3496447E0,3.9227394E1,1.0012546E0,2.6330044E1],"tree_param":{"num_deleted":"0","num_feature":"12","num_nodes":"7","size_leaf_vector":"1"}},{"base_weights":[-4.9830656E-3,2.3180181E-2,-5.706235E-1,-4.8017743E-1,6.097689E-2,-7.524363E-1,-1.6858488E-1],"categories":[],"categories_nodes":[],"categories_segments":[],"categories_sizes":[],"default_left":[0,0,0,0,0,0,0],"id":17,"left_children":[1,3,5,-1,-1,-1,-1],"loss_changes":[1.1327513E0,1.3211781E0,1.1964047E-1,0E0,0E0,0E0,0E0],"parents":[2147483647,0,0,1,1,2,2],"right_children":[2,4,6,-1,-1,-1,-1],"split_conditions":[3.7111612E2,1.4538217E1,4.8E2,-4.8017743E-1,6.097689E-2,-7.524363E-1,-1.6858488E-1],"split_indices":[6,9,6,0,0,0,0],"split_type":[0,0,0,0,0,0,0],"sum_hessian":[6.927652E1,6.690437E1,2.37215E0,3.8554327E0,6.304894E1,1.0333081E0,1.3388418E0],"tree_param":{"num_deleted":"0","num_feature":"12","num_nodes":"7","size_leaf_vector":"1"}},{"base_weights":[-1.9589327E-2,1.6490911E-1,-1.0492832E-1,-2.4420122E-2,5.681322E-1,-5.6764424E-1,2.0726267E-2],"categories":[],"categories_nodes":[],"categories_segments":[],"categories_sizes":[],"default_left":[0,0,0,0,0,0,0],"id":18,"left_children":[1,3,5,-1,-1,-1,-1],"loss_changes":[1.1137979E0,1.7249737E0,2.8158298E0,0E0,0E0,0E0,0E0],"parents":[2147483647,0,0,1,1,2,2],"right_children":[2,4,6,-1,-1,-1,-1],"split_conditions":[1.50214815E1,1.48870945E1,1.07E5,-2.4420122E-2,5.681322E-1,-5.6764424E-1,2.0726267E-2],"split_indices":[9,9,5,0,0,0,0],"split_type":[0,0,0,0,0,0,0],"sum_hessian":[6.864118E1,2.1413633E1,4.722755E1,1.5210935E1,6.202698E0,9.334881E0,3.789267E1],"tree_param":{"num_deleted":"0","num_feature":"12","num_nodes":"7","size_leaf_vector":"1"}},{"base_weights":[5.472779E-3,1.7625615E-1,-7.495417E-2,3.5149473E-1,-6.4081806E-1,-3.739391E-1,6.341589E-2],"categories":[],"categories_nodes":[],"categories_segments":[],"categories_sizes":[],"default_left":[0,0,0,0,0,0,0],"id":19,"left_children":[1,3,5,-1,-1,-1,-1],"loss_changes":[9.557699E-1,3.4136608E0,1.9827559E0,0E0,0E0,0E0,0E0],"parents":[2147483647,0,0,1,1,2,2],"right_children":[2,4,6,-1,-1,-1,-1],"split_conditions":[1.5312242E1,1.25E5,1.3E5,3.5149473E-1,-6.4081806E-1,-3.739391E-1,6.341589E-2],"split_indices":[11,5,5,0,0,0,0],"split_type":[0,0,0,0,0,0,0],"sum_hessian":[6.7621666E1,2.1268135E1,4.635353E1,1.7981451E1,3.2866836E0,1.4126676E1,3.2226856E1],"tree_param":{"num_deleted":"0","num_feature":"12","num_nodes":"7","size_leaf_vector":"1"}},{"base_weights":[-4.7092047E-3,-6.904358E-1,2.590219E-2,6.46037E-1,-1.12289395E-2],"categories":[],"categories_nodes":[],"categories_segments":[],"categories_sizes":[],"default_left":[0,0,0,0,0],"id":20,"left_children":[1,-1,3,-1,-1],"loss_changes":[1.4490876E0,0E0,1.5323291E0,0E0,0E0],"parents":[2147483647,0,0,2,2],"right_children":[2,-1,4,-1,-1],"split_conditions":[1.4723366E1,-6.904358E-1,6.2E4,6.46037E-1,-1.12289395E-2],"split_indices":[11,0,5,0,0],"split_type":[0,0,0,0,0],"sum_hessian":[6.7181625E1,1.9497762E0,6.523185E1,2.758741E0,6.247311E1],"tree_param":{"num_deleted":"0","num_feature":"12","num_nodes":"5","size_leaf_vector":"1"}},{"base_weights":[3.0131247E-3,2.5973158E-2,-4.7999516E-1,1.0917715E-1,-1.4733134E-1],"categories":[],"categories_nodes":[],"categories_segments":[],"categories_sizes":[],"default_left":[0,0,0,0,0],"id":21,"left_children":[1,3,-1,-1,-1],"loss_changes":[7.567155E-1,9.535608E-1,0E0,0E0,0E0],"parents":[2147483647,0,0,1,1],"right_children":[2,4,-1,-1,-1],"split_conditions":[3.7111612E2,1.7E5,-4.7999516E-1,1.0917715E-1,-1.4733134E-1],"split_indices":[6,5,0,0,0],"split_type":[0,0,0,0,0],"sum_hessian":[6.6110565E1,6.401386E1,2.0967038E0,4.3499603E1,2.051426E1],"tree_param":{"num_deleted":"0","num_feature":"12","num_nodes":"5","size_leaf_vector":"1"}},{"base_weights":[-7.659709E-3,-1.3566896E-1,1.2897329E-1,6.854272E-2,-3.6108065E-1,5.0136256E-1,6.538255E-3],"categories":[],"categories_nodes":[],"categories_segments":[],"categories_sizes":[],"default_left":[0,0,0,0,0,0,0],"id":22,"left_children":[1,3,5,-1,-1,-1,-1],"loss_changes":[1.1739055E0,1.6185131E0,1.478235E0,0E0,0E0,0E0,0E0],"parents":[2147483647,0,0,1,1,2,2],"right_children":[2,4,6,-1,-1,-1,-1],"split_conditions":[1.5567968E1,1E0,1.572993E1,6.854272E-2,-3.6108065E-1,5.0136256E-1,6.538255E-3],"split_indices":[11,1,11,0,0,0,0],"split_type":[0,0,0,0,0,0,0],"sum_hessian":[6.511714E1,3.362318E1,3.1493961E1,1.80063E1,1.5616881E1,7.02681E0,2.446715E1],"tree_param":{"num_deleted":"0","num_feature":"12","num_nodes":"7","size_leaf_vector":"1"}},{"base_weights":[1.0306511E-2,-5.2652135E-2,2.3773238E-1,-8.960633E-2,9.0006894E-1,2.5033485E-2,6.399291E-1],"categories":[],"categories_nodes":[],"categories_segments":[],"categories_sizes":[],"default_left":[0,0,0,0,0,0,0],"id":23,"left_children":[1,3,5,-1,-1,-1,-1],"loss_changes":[9.770376E-1,1.9669038E0,1.2488925E0,0E0,0E0,0E0,0E0],"parents":[2147483647,0,0,1,1,2,2],"right_children":[2,4,6,-1,-1,-1,-1],"split_conditions":[2E0,1.5712681E1,1.552606E1,-8.960633E-2,9.0006894E-1,2.5033485E-2,6.399291E-1],"split_indices":[2,10,9,0,0,0,0],"split_type":[0,0,0,0,0,0,0],"sum_hessian":[6.636218E1,5.2575985E1,1.37862015E1,5.1484932E1,1.0910534E0,9.71221E0,4.0739923E0],"tree_param":{"num_deleted":"0","num_feature":"12","num_nodes":"7","size_leaf_vector":"1"}},{"base_weights":[2.7820861E-2,-3.194645E-1,6.544449E-2,-7.6665527E-1,1.2781598E-1,2.1305388E-1,-6.1662253E-2],"categories":[],"categories_nodes":[],"categories_segments":[],"categories_sizes":[],"default_left":[0,0,0,0,0,0,0],"id":24,"left_children":[1,3,5,-1,-1,-1,-1],"loss_changes":[8.9297897E-1,1.4369087E0,1.1585473E0,0E0,0E0,0E0,0E0],"parents":[2147483647,0,0,1,1,2,2],"right_children":[2,4,6,-1,-1,-1,-1],"split_conditions":[1E0,1.28112016E5,1.27E5,-7.6665527E-1,1.2781598E-1,2.1305388E-1,-6.1662253E-2],"split_indices":[7,5,5,0,0,0,0],"split_type":[0,0,0,0,0,0,0],"sum_hessian":[6.57429E1,5.693932E0,6.0048965E1,2.4901972E0,3.2037346E0,2.7470833E1,3.2578133E1],"tree_param":{"num_deleted":"0","num_feature":"12","num_nodes":"7","size_leaf_vector":"1"}},{"base_weights":[-1.3049951E-2,-2.8511626E-1,4.12028E-2,-5.259899E-1,5.0496805E-1,2.186838E-1,-7.698118E-2],"categories":[],"categories_nodes":[],"categories_segments":[],"categories_sizes":[],"default_left":[0,0,0,0,0,0,0],"id":25,"left_children":[1,3,5,-1,-1,-1,-1],"loss_changes":[9.6209633E-1,2.3268132E0,1.1611378E0,0E0,0E0,0E0,0E0],"parents":[2147483647,0,0,1,1,2,2],"right_children":[2,4,6,-1,-1,-1,-1],"split_conditions":[8.4E4,1.5176487E1,1.5201805E1,-5.259899E-1,5.0496805E-1,2.186838E-1,-7.698118E-2],"split_indices":[5,9,9,0,0,0,0],"split_type":[0,0,0,0,0,0,0],"sum_hessian":[6.3385258E1,9.8307495E0,5.355451E1,7.790052E0,2.040698E0,2.1067038E1,3.2487473E1],"tree_param":{"num_deleted":"0","num_feature":"12","num_nodes":"7","size_leaf_vector":"1"}},{"base_weights":[4.8042145E-3,-4.834895E-2,1.8810095E-1,3.9706626E-3,-1.0030075E0,9.8813355E-1,-2.0737362E-3],"categories":[],"categories_nodes":[],"categories_segments":[],"categories_sizes":[],"default_left":[0,0,0,0,0,0,0],"id":26,"left_children":[1,3,5,-1,-1,-1,-1],"loss_changes":[6.278283E-1,2.5026581E0,2.2052126E0,0E0,0E0,0E0,0E0],"parents":[2147483647,0,0,1,1,2,2],"right_children":[2,4,6,-1,-1,-1,-1],"split_conditions":[1.5671808E1,1.5612755E1,1.5798854E1,3.9706626E-3,-1.0030075E0,9.8813355E-1,-2.0737362E-3],"split_indices":[9,9,11,0,0,0,0],"split_type":[0,0,0,0,0,0,0],"sum_hessian":[6.2506763E1,4.9026173E1,1.3480591E1,4.742302E1,1.603155E0,1.7831703E0,1.169742E1],"tree_param":{"num_deleted":"0","num_feature":"12","num_nodes":"7","size_leaf_vector":"1"}},{"base_weights":[7.2082994E-3,-5.9754297E-2,1.6490525E-1,-2.1398363E-3,-7.528869E-1,3.1627494E-1,-3.1404942E-1],"categories":[],"categories_nodes":[],"categories_segments":[],"categories_sizes":[],"default_left":[0,0,0,0,0,0,0],"id":27,"left_children":[1,3,5,-1,-1,-1,-1],"loss_changes":[6.779239E-1,1.8011261E0,1.4857308E0,0E0,0E0,0E0,0E0],"parents":[2147483647,0,0,1,1,2,2],"right_children":[2,4,6,-1,-1,-1,-1],"split_conditions":[1.75E5,1.7E5,1.6374054E1,-2.1398363E-3,-7.528869E-1,3.1627494E-1,-3.1404942E-1],"split_indices":[5,5,11,0,0,0,0],"split_type":[0,0,0,0,0,0,0],"sum_hessian":[6.2265427E1,4.4142395E1,1.8123032E1,4.1680893E1,2.4615054E0,1.4028953E1,4.094079E0],"tree_param":{"num_deleted":"0","num_feature":"12","num_nodes":"7","size_leaf_vector":"1"}},{"base_weights":[-1.250886E-2,-4.494397E-2,4.703925E-1,4.817685E-2,-2.2282581E-1,3.514173E-2,8.521613E-1],"categories":[],"categories_nodes":[],"categories_segments":[],"categories_sizes":[],"default_left":[0,0,0,0,0,0,0],"id":28,"left_children":[1,3,5,-1,-1,-1,-1],"loss_changes":[9.978815E-1,9.938013E-1,6.3672876E-1,0E0,0E0,0E0,0E0],"parents":[2147483647,0,0,1,1,2,2],"right_children":[2,4,6,-1,-1,-1,-1],"split_conditions":[1.6514587E1,1.572993E1,1E0,4.817685E-2,-2.2282581E-1,3.514173E-2,8.521613E-1],"split_indices":[9,11,4,0,0,0,0],"split_type":[0,0,0,0,0,0,0],"sum_hessian":[6.1359882E1,5.834776E1,3.0121238E0,3.8777153E1,1.9570606E1,1.9177575E0,1.0943663E0],"tree_param":{"num_deleted":"0","num_feature":"12","num_nodes":"7","size_leaf_vector":"1"}},{"base_weights":[1.3877879E-2,-1.4576557E-1,1.00323305E-1,-3.3338007E-2,-7.9566824E-1,4.9357355E-1,3.71663E-2],"categories":[],"categories_nodes":[],"categories_segments":[],"categories_sizes":[],"default_left":[0,0,0,0,0,0,0],"id":29,"left_children":[1,3,5,-1,-1,-1,-1],"loss_changes":[8.736679E-1,1.600955E0,9.9930024E-1,0E0,0E0,0E0,0E0],"parents":[2147483647,0,0,1,1,2,2],"right_children":[2,4,6,-1,-1,-1,-1],"split_conditions":[1.15E5,1.12E5,1.27E5,-3.3338007E-2,-7.9566824E-1,4.9357355E-1,3.71663E-2],"split_indices":[5,5,5,0,0,0,0],"split_type":[0,0,0,0,0,0,0],"sum_hessian":[6.1247562E1,2.1273825E1,3.997374E1,1.9032639E1,2.241186E0,4.588457E0,3.538528E1],"tree_param":{"num_deleted":"0","num_feature":"12","num_nodes":"7","size_leaf_vector":"1"}},{"base_weights":[2.4086959E-3,3.0490038E-1,-5.0514508E-2,-2.0208943E-1,4.1915366E-1,-7.763319E-1,-4.810988E-3],"categories":[],"categories_nodes":[],"categories_segments":[],"categories_sizes":[],"default_left":[0,0,0,0,0,0,0],"id":30,"left_children":[1,3,5,-1,-1,-1,-1],"loss_changes":[1.0036572E0,6.2540066E-1,1.7675904E0,0E0,0E0,0E0,0E0],"parents":[2147483647,0,0,1,1,2,2],"right_children":[2,4,6,-1,-1,-1,-1],"split_conditions":[1.4735793E1,6.671377E4,1.479609E1,-2.0208943E-1,4.1915366E-1,-7.763319E-1,-4.810988E-3],"split_indices":[9,5,9,0,0,0,0],"split_type":[0,0,0,0,0,0,0],"sum_hessian":[6.073189E1,8.334342E0,5.2397552E1,1.3913873E0,6.9429545E0,2.1569397E0,5.0240612E1],"tree_param":{"num_deleted":"0","num_feature":"12","num_nodes":"7","size_leaf_vector":"1"}},{"base_weights":[-6.3954773E-3,-7.147716E-2,1.6594453E-1,2.2114486E-2,-5.9877867E-1,-4.8359618E-1,3.599724E-1],"categories":[],"categories_nodes":[],"categories_segments":[],"categories_sizes":[],"default_left":[0,0,0,0,0,0,0],"id":31,"left_children":[1,3,5,-1,-1,-1,-1],"loss_changes":[7.057888E-1,2.264048E0,2.349385E0,0E0,0E0,0E0,0E0],"parents":[2147483647,0,0,1,1,2,2],"right_children":[2,4,6,-1,-1,-1,-1],"split_conditions":[1.5892073E1,1.73E5,1.65E5,2.2114486E-2,-5.9877867E-1,-4.8359618E-1,3.599724E-1],"split_indices":[11,5,5,0,0,0,0],"split_type":[0,0,0,0,0,0,0],"sum_hessian":[6.086845E1,4.460811E1,1.6260344E1,3.8697655E1,5.9104524E0,3.3967497E0,1.2863594E1],"tree_param":{"num_deleted":"0","num_feature":"12","num_nodes":"7","size_leaf_vector":"1"}},{"base_weights":[-8.926487E-3,4.1029707E-2,-3.6987445E-1,-9.982158E-2,2.312938E-1,-5.950228E-1,5.6079105E-2],"categories":[],"categories_nodes":[],"categories_segments":[],"categories_sizes":[],"default_left":[0,0,0,0,0,0,0],"id":32,"left_children":[1,3,5,-1,-1,-1,-1],"loss_changes":[1.1321901E0,1.5055099E0,7.6522267E-1,0E0,0E0,0E0,0E0],"parents":[2147483647,0,0,1,1,2,2],"right_children":[2,4,6,-1,-1,-1,-1],"split_conditions":[2.6E5,1.36E5,3.3E5,-9.982158E-2,2.312938E-1,-5.950228E-1,5.6079105E-2],"split_indices":[5,5,5,0,0,0,0],"split_type":[0,0,0,0,0,0,0],"sum_hessian":[6.094764E1,5.4316425E1,6.631215E0,3.1484215E1,2.283221E1,4.078502E0,2.552713E0],"tree_param":{"num_deleted":"0","num_feature":"12","num_nodes":"7","size_leaf_vector":"1"}},{"base_weights":[-6.9762613E-3,3.211345E-1,-4.7829665E-2,6.180496E-1,-3.7107396E-1,-2.1521844E-1,1.09197006E-1],"categories":[],"categories_nodes":[],"categories_segments":[],"categories_sizes":[],"default_left":[0,0,0,0,0,0,0],"id":33,"left_children":[1,3,5,-1,-1,-1,-1],"loss_changes":[8.4334433E-1,1.6616659E0,1.4901866E0,0E0,0E0,0E0,0E0],"parents":[2147483647,0,0,1,1,2,2],"right_children":[2,4,6,-1,-1,-1,-1],"split_conditions":[7.355669E4,5.2256846E-1,9.687816E0,6.180496E-1,-3.7107396E-1,-2.1521844E-1,1.09197006E-1],"split_indices":[5,10,10,0,0,0,0],"split_type":[0,0,0,0,0,0,0],"sum_hessian":[6.0769417E1,5.9690247E0,5.480039E1,4.2522173E0,1.7168074E0,2.6345636E1,2.8454754E1],"tree_param":{"num_deleted":"0","num_feature":"12","num_nodes":"7","size_leaf_vector":"1"}},{"base_weights":[5.7430333E-3,9.844236E-2,-1.7979497E-1,6.550139E-1,4.067924E-2,-8.299514E-3,-6.864612E-1],"categories":[],"categories_nodes":[],"categories_segments":[],"categories_sizes":[],"default_left":[0,0,0,0,0,0,0],"id":34,"left_children":[1,3,5,-1,-1,-1,-1],"loss_changes":[1.0725611E0,1.3089762E0,1.80055E0,0E0,0E0,0E0,0E0],"parents":[2147483647,0,0,1,1,2,2],"right_children":[2,4,6,-1,-1,-1,-1],"split_conditions":[1.4425276E1,1.8341296E2,2E0,6.550139E-1,4.067924E-2,-8.299514E-3,-6.864612E-1],"split_indices":[10,6,8,0,0,0,0],"split_type":[0,0,0,0,0,0,0],"sum_hessian":[6.0331852E1,4.0544334E1,1.978752E1,2.8400097E0,3.7704323E1,1.5542952E1,4.244569E0],"tree_param":{"num_deleted":"0","num_feature":"12","num_nodes":"7","size_leaf_vector":"1"}},{"base_weights":[8.2883965E-3,-2.9862595E-1,4.0330846E-2,-6.2430364E-1,1.7811215E-1,-2.0693121E-2,3.439358E-1],"categories":[],"categories_nodes":[],"categories_segments":[],"categories_sizes":[],"default_left":[0,0,0,0,0,0,0],"id":35,"left_children":[1,3,5,-1,-1,-1,-1],"loss_changes":[6.181627E-1,1.0342857E0,1.0573839E0,0E0,0E0,0E0,0E0],"parents":[2147483647,0,0,1,1,2,2],"right_children":[2,4,6,-1,-1,-1,-1],"split_conditions":[1E0,1.5403203E1,1.4918447E1,-6.2430364E-1,1.7811215E-1,-2.0693121E-2,3.439358E-1],"split_indices":[7,9,10,0,0,0,0],"split_type":[0,0,0,0,0,0,0],"sum_hessian":[6.0633224E1,4.945331E0,5.5687897E1,2.7542608E0,2.1910703E0,4.714391E1,8.543986E0],"tree_param":{"num_deleted":"0","num_feature":"12","num_nodes":"7","size_leaf_vector":"1"}},{"base_weights":[-5.5680214E-3,-2.5881067E-1,2.9648175E-2,-8.270995E-1,2.5286362E-1,2.9642507E-1,-3.997852E-2],"categories":[],"categories_nodes":[],"categories_segments":[],"categories_sizes":[],"default_left":[0,0,0,0,0,0,0],"id":36,"left_children":[1,3,5,-1,-1,-1,-1],"loss_changes":[5.43108E-1,2.3703492E0,1.0075648E0,0E0,0E0,0E0,0E0],"parents":[2147483647,0,0,1,1,2,2],"right_children":[2,4,6,-1,-1,-1,-1],"split_conditions":[3.6E2,1E0,1E0,-8.270995E-1,2.5286362E-1,2.9642507E-1,-3.997852E-2],"split_indices":[6,1,0,0,0,0,0],"split_type":[0,0,0,0,0,0,0],"sum_hessian":[5.9038136E1,6.432474E0,5.2605663E1,2.755563E0,3.676911E0,1.0213802E1,4.239186E1],"tree_param":{"num_deleted":"0","num_feature":"12","num_nodes":"7","size_leaf_vector":"1"}},{"base_weights":[-7.13997E-3,-3.3942235E-1,2.1326233E-2,-4.7939938E-1,4.768674E-2,1.4658663E-1,-8.35588E-2],"categories":[],"categories_nodes":[],"categories_segments":[],"categories_sizes":[],"default_left":[0,0,0,0,0,0,0],"id":37,"left_children":[1,3,5,-1,-1,-1,-1],"loss_changes":[5.7120574E-1,2.8100085E-1,7.461275E-1,0E0,0E0,0E0,0E0],"parents":[2147483647,0,0,1,1,2,2],"right_children":[2,4,6,-1,-1,-1,-1],"split_conditions":[7E4,1.38012085E1,1.3299511E5,-4.7939938E-1,4.768674E-2,1.4658663E-1,-8.35588E-2],"split_indices":[5,10,5,0,0,0,0],"split_type":[0,0,0,0,0,0,0],"sum_hessian":[5.8623432E1,3.7639241E0,5.485951E1,2.5892525E0,1.1746716E0,2.4820131E1,3.0039377E1],"tree_param":{"num_deleted":"0","num_feature":"12","num_nodes":"7","size_leaf_vector":"1"}},{"base_weights":[-4.7021713E-3,-9.380091E-2,1.1588707E-1,1.6535483E-2,-4.2364627E-1,3.8684288E-1,-4.933632E-2],"categories":[],"categories_nodes":[],"categories_segments":[],"categories_sizes":[],"default_left":[0,0,0,0,0,0,0],"id":38,"left_children":[1,3,5,-1,-1,-1,-1],"loss_changes":[6.4487785E-1,1.2621517E0,1.1616015E0,0E0,0E0,0E0,0E0],"parents":[2147483647,0,0,1,1,2,2],"right_children":[2,4,6,-1,-1,-1,-1],"split_conditions":[1.5361955E1,1.5201805E1,1.5778688E1,1.6535483E-2,-4.2364627E-1,3.8684288E-1,-4.933632E-2],"split_indices":[9,9,11,0,0,0,0],"split_type":[0,0,0,0,0,0,0],"sum_hessian":[5.800847E1,3.3487785E1,2.4520687E1,2.5805477E1,7.682307E0,8.780271E0,1.5740417E1],"tree_param":{"num_deleted":"0","num_feature":"12","num_nodes":"7","size_leaf_vector":"1"}},{"base_weights":[2.4290774E-3,-3.794191E-2,2.0760846E-1,-1.192881E-2,-5.366999E-1,8.928418E-1,2.6422583E-2],"categories":[],"categories_nodes":[],"categories_segments":[],"categories_sizes":[],"default_left":[0,0,0,0,0,0,0],"id":39,"left_children":[1,3,5,-1,-1,-1,-1],"loss_changes":[4.962095E-1,6.4369494E-1,1.1989765E0,0E0,0E0,0E0,0E0],"parents":[2147483647,0,0,1,1,2,2],"right_children":[2,4,6,-1,-1,-1,-1],"split_conditions":[1.58825E1,1.58061075E1,1.5935854E1,-1.192881E-2,-5.366999E-1,8.928418E-1,2.6422583E-2],"split_indices":[9,9,9,0,0,0,0],"split_type":[0,0,0,0,0,0,0],"sum_hessian":[5.7953888E1,4.910675E1,8.847139E0,4.764567E1,1.4610791E0,1.0287406E0,7.8183985E0],"tree_param":{"num_deleted":"0","num_feature":"12","num_nodes":"7","size_leaf_vector":"1"}},{"base_weights":[5.6618345E-3,-2.662227E-1,3.316437E-2,8.987629E-2,-6.2371075E-1,-2.6505996E-2,2.4148968E-1],"categories":[],"categories_nodes":[],"categories_segments":[],"categories_sizes":[],"default_left":[0,0,0,0,0,0,0],"id":40,"left_children":[1,3,5,-1,-1,-1,-1],"loss_changes":[4.5020694E-1,7.6043844E-1,6.838095E-1,0E0,0E0,0E0,0E0],"parents":[2147483647,0,0,1,1,2,2],"right_children":[2,4,6,-1,-1,-1,-1],"split_conditions":[1E0,1.5489425E1,1.5648092E1,8.987629E-2,-6.2371075E-1,-2.6505996E-2,2.4148968E-1],"split_indices":[7,9,9,0,0,0,0],"split_type":[0,0,0,0,0,0,0],"sum_hessian":[5.8027344E1,4.5331917E0,5.3494152E1,2.6460314E0,1.8871605E0,4.2261894E1,1.1232258E1],"tree_param":{"num_deleted":"0","num_feature":"12","num_nodes":"7","size_leaf_vector":"1"}},{"base_weights":[-8.356687E-3,-1.13639325E-1,9.799981E-2,-5.433459E-2,-7.935772E-1,-1.4738537E-1,2.892277E-1],"categories":[],"categories_nodes":[],"categories_segments":[],"categories_sizes":[],"default_left":[0,0,0,0,0,0,0],"id":41,"left_children":[1,3,5,-1,-1,-1,-1],"loss_changes":[6.643233E-1,1.1576232E0,1.4295096E0,0E0,0E0,0E0,0E0],"parents":[2147483647,0,0,1,1,2,2],"right_children":[2,4,6,-1,-1,-1,-1],"split_conditions":[9.687816E0,5.2256846E-1,1E0,-5.433459E-2,-7.935772E-1,-1.4738537E-1,2.892277E-1],"split_indices":[10,10,8,0,0,0,0],"split_type":[0,0,0,0,0,0,0],"sum_hessian":[5.7333298E1,2.8777693E1,2.8555605E1,2.7462317E1,1.3153746E0,1.2607205E1,1.59484005E1],"tree_param":{"num_deleted":"0","num_feature":"12","num_nodes":"7","size_leaf_vector":"1"}},{"base_weights":[-1.22071095E-2,3.456706E-2,-1.7796978E-1,-3.8754016E-3,6.1730736E-1,-6.156455E-1,3.9116427E-2],"categories":[],"categories_nodes":[],"categories_segments":[],"categories_sizes":[],"default_left":[0,0,0,0,0,0,0],"id":42,"left_children":[1,3,5,-1,-1,-1,-1],"loss_changes":[4.4411907E-1,1.0080833E0,1.2206857E0,0E0,0E0,0E0,0E0],"parents":[2147483647,0,0,1,1,2,2],"right_children":[2,4,6,-1,-1,-1,-1],"split_conditions":[1.5989808E1,1.5068274E1,1.5576639E1,-3.8754016E-3,6.1730736E-1,-6.156455E-1,3.9116427E-2],"split_indices":[11,10,9,0,0,0,0],"split_type":[0,0,0,0,0,0,0],"sum_hessian":[5.5487026E1,4.389297E1,1.1594055E1,4.210849E1,1.7844813E0,3.2352984E0,8.358757E0],"tree_param":{"num_deleted":"0","num_feature":"12","num_nodes":"7","size_leaf_vector":"1"}},{"base_weights":[3.3363155E-3,-1.0637495E-1,7.345051E-2,-2.224979E-1,8.5733193E-1,5.7818264E-1,-2.7614756E-2],"categories":[],"categories_nodes":[],"categories_segments":[],"categories_sizes":[],"default_left":[0,0,0,0,0,0,0],"id":43,"left_children":[1,3,5,-1,-1,-1,-1],"loss_changes":[4.4202718E-1,2.6994634E0,1.8028895E0,0E0,0E0,0E0,0E0],"parents":[2147483647,0,0,1,1,2,2],"right_children":[2,4,6,-1,-1,-1,-1],"split_conditions":[1.5126283E1,1.82E5,1.5337864E1,-2.224979E-1,8.5733193E-1,5.7818264E-1,-2.7614756E-2],"split_indices":[9,5,11,0,0,0,0],"split_type":[0,0,0,0,0,0,0],"sum_hessian":[5.5447735E1,2.1417505E1,3.4030228E1,1.9800718E1,1.6167868E0,4.8896823E0,2.9140547E1],"tree_param":{"num_deleted":"0","num_feature":"12","num_nodes":"7","size_leaf_vector":"1"}},{"base_weights":[2.6672713E-2,3.987058E-1,-1.5580798E-2,-5.431482E-3,9.478914E-1,-1.3078256E-1,9.292224E-2],"categories":[],"categories_nodes":[],"categories_segments":[],"categories_sizes":[],"default_left":[0,0,0,0,0,0,0],"id":44,"left_children":[1,3,5,-1,-1,-1,-1],"loss_changes":[8.9390624E-1,1.2917842E0,6.58053E-1,0E0,0E0,0E0,0E0],"parents":[2147483647,0,0,1,1,2,2],"right_children":[2,4,6,-1,-1,-1,-1],"split_conditions":[1.4945298E1,1.4835272E1,1.2388394E1,-5.431482E-3,9.478914E-1,-1.3078256E-1,9.292224E-2],"split_indices":[11,11,10,0,0,0,0],"split_type":[0,0,0,0,0,0,0],"sum_hessian":[5.547015E1,4.7970567E0,5.0673096E1,3.3338428E0,1.463214E0,2.4478264E1,2.6194832E1],"tree_param":{"num_deleted":"0","num_feature":"12","num_nodes":"7","size_leaf_vector":"1"}},{"base_weights":[2.1223012E-2,-2.881648E-1,4.4983298E-2,1.1840118E-1,-7.0410305E-1,7.001269E-2,-5.256931E-1],"categories":[],"categories_nodes":[],"categories_segments":[],"categories_sizes":[],"default_left":[0,0,0,0,0,0,0],"id":45,"left_children":[1,3,5,-1,-1,-1,-1],"loss_changes":[4.2388332E-1,7.8038263E-1,7.906569E-1,0E0,0E0,0E0,0E0],"parents":[2147483647,0,0,1,1,2,2],"right_children":[2,4,6,-1,-1,-1,-1],"split_conditions":[1.4538217E1,1.5283385E1,3.7111612E2,1.1840118E-1,-7.0410305E-1,7.001269E-2,-5.256931E-1],"split_indices":[9,11,6,0,0,0,0],"split_type":[0,0,0,0,0,0,0],"sum_hessian":[5.4898888E1,3.1217616E0,5.1777126E1,1.9404122E0,1.1813494E0,5.0442097E1,1.3350319E0],"tree_param":{"num_deleted":"0","num_feature":"12","num_nodes":"7","size_leaf_vector":"1"}},{"base_weights":[-1.9846013E-2,1.274233E-1,-6.8222396E-2,-6.334669E-1,2.5867182E-1,-7.4948823E-1,-2.8893886E-2],"categories":[],"categories_nodes":[],"categories_segments":[],"categories_sizes":[],"default_left":[0,0,0,0,0,0,0],"id":46,"left_children":[1,3,5,-1,-1,-1,-1],"loss_changes":[4.0071723E-1,1.5574557E0,1.1055652E0,0E0,0E0,0E0,0E0],"parents":[2147483647,0,0,1,1,2,2],"right_children":[2,4,6,-1,-1,-1,-1],"split_conditions":[1.494788E1,3.591204E2,1.4970188E1,-6.334669E-1,2.5867182E-1,-7.4948823E-1,-2.8893886E-2],"split_indices":[9,6,9,0,0,0,0],"split_type":[0,0,0,0,0,0,0],"sum_hessian":[5.4025894E1,1.2954696E1,4.10712E1,1.3429147E0,1.161178E1,1.2560594E0,3.981514E1],"tree_param":{"num_deleted":"0","num_feature":"12","num_nodes":"7","size_leaf_vector":"1"}},{"base_weights":[-1.6784279E-2,2.698913E-1,-4.461679E-2,-1.4697126E-1,5.5436796E-1,-3.608534E-1,-1.789823E-2],"categories":[],"categories_nodes":[],"categories_segments":[],"categories_sizes":[],"default_left":[0,0,0,0,0,0,0],"id":47,"left_children":[1,3,5,-1,-1,-1,-1],"loss_changes":[4.5464128E-1,6.8044025E-1,4.2801255E-1,0E0,0E0,0E0,0E0],"parents":[2147483647,0,0,1,1,2,2],"right_children":[2,4,6,-1,-1,-1,-1],"split_conditions":[1.8341296E2,1.5095611E1,1.4538217E1,-1.4697126E-1,5.5436796E-1,-3.608534E-1,-1.789823E-2],"split_indices":[6,9,9,0,0,0,0],"split_type":[0,0,0,0,0,0,0],"sum_hessian":[5.4471252E1,4.0508113E0,5.042044E1,1.8391482E0,2.211663E0,2.9538164E0,4.7466625E1],"tree_param":{"num_deleted":"0","num_feature":"12","num_nodes":"7","size_leaf_vector":"1"}},{"base_weights":[3.1163788E-3,6.829864E-2,-9.5175624E-2,-2.1012466E-2,5.1195437E-1,-1.9594778E-1,2.8454313E-1],"categories":[],"categories_nodes":[],"categories_segments":[],"categories_sizes":[],"default_left":[0,0,0,0,0,0,0],"id":48,"left_children":[1,3,5,-1,-1,-1,-1],"loss_changes":[3.5954544E-1,1.3466394E0,9.124891E-1,0E0,0E0,0E0,0E0],"parents":[2147483647,0,0,1,1,2,2],"right_children":[2,4,6,-1,-1,-1,-1],"split_conditions":[1.58E5,1.36E5,1.5178024E1,-2.1012466E-2,5.1195437E-1,-1.9594778E-1,2.8454313E-1],"split_indices":[5,5,10,0,0,0,0],"split_type":[0,0,0,0,0,0,0],"sum_hessian":[5.4103928E1,3.271449E1,2.1389439E1,2.802541E1,4.6890798E0,1.7285952E1,4.1034884E0],"tree_param":{"num_deleted":"0","num_feature":"12","num_nodes":"7","size_leaf_vector":"1"}},{"base_weights":[1.3258441E-2,7.3249675E-2,-1.738892E-1,-1.7515363E-2,2.5869626E-1,2.759698E-1,-3.7574878E-1],"categories":[],"categories_nodes":[],"categories_segments":[],"categories_sizes":[],"default_left":[0,0,0,0,0,0,0],"id":49,"left_children":[1,3,5,-1,-1,-1,-1],"loss_changes":[6.237671E-1,7.10073E-1,1.3302826E0,0E0,0E0,0E0,0E0],"parents":[2147483647,0,0,1,1,2,2],"right_children":[2,4,6,-1,-1,-1,-1],"split_conditions":[1.4603968E1,1.5648092E1,1.4926051E1,-1.7515363E-2,2.5869626E-1,2.759698E-1,-3.7574878E-1],"split_indices":[10,11,9,0,0,0,0],"split_type":[0,0,0,0,0,0,0],"sum_hessian":[5.3423965E1,4.091654E1,1.2507427E1,2.8079063E1,1.2837476E1,3.7602634E0,8.747163E0],"tree_param":{"num_deleted":"0","num_feature":"12","num_nodes":"7","size_leaf_vector":"1"}},{"base_weights":[5.5238493E-3,1.4784268E-1,-3.2320272E-2,2.3976694E-1,-3.1890324E-1,-6.42425E-1,1.0524702E-2],"categories":[],"categories_nodes":[],"categories_segments":[],"categories_sizes":[],"default_left":[0,0,0,0,0,0,0],"id":50,"left_children":[1,3,5,-1,-1,-1,-1],"loss_changes":[2.9817402E-1,5.7510865E-1,1.1530607E0,0E0,0E0,0E0,0E0],"parents":[2147483647,0,0,1,1,2,2],"right_children":[2,4,6,-1,-1,-1,-1],"split_conditions":[1.516799E1,1.23E5,1.5222097E1,2.3976694E-1,-3.1890324E-1,-6.42425E-1,1.0524702E-2],"split_indices":[11,5,11,0,0,0,0],"split_type":[0,0,0,0,0,0,0],"sum_hessian":[5.3474464E1,1.06220255E1,4.285244E1,9.280549E0,1.3414764E0,1.893609E0,4.0958828E1],"tree_param":{"num_deleted":"0","num_feature":"12","num_nodes":"7","size_leaf_vector":"1"}},{"base_weights":[-1.3168059E-2,-1.7455725E-1,2.231241E-2,-3.593828E-1,9.5484644E-2,2.915702E-1,-2.8937759E-2],"categories":[],"categories_nodes":[],"categories_segments":[],"categories_sizes":[],"default_left":[0,0,0,0,0,0,0],"id":51,"left_children":[1,3,5,-1,-1,-1,-1],"loss_changes":[3.127028E-1,5.250691E-1,6.307489E-1,0E0,0E0,0E0,0E0],"parents":[2147483647,0,0,1,1,2,2],"right_children":[2,4,6,-1,-1,-1,-1],"split_conditions":[1.479609E1,1.4505152E1,1.50214815E1,-3.593828E-1,9.5484644E-2,2.915702E-1,-2.8937759E-2],"split_indices":[9,10,9,0,0,0,0],"split_type":[0,0,0,0,0,0,0],"sum_hessian":[5.29293E1,8.8326435E0,4.4096653E1,5.047279E0,3.7853644E0,6.301376E0,3.7795277E1],"tree_param":{"num_deleted":"0","num_feature":"12","num_nodes":"7","size_leaf_vector":"1"}},{"base_weights":[9.937324E-4,-1.0732908E-1,6.32678E-2,-8.412903E-3,-6.606403E-1,1.5047552E-1,-1.788511E-1],"categories":[],"categories_nodes":[],"categories_segments":[],"categories_sizes":[],"default_left":[0,0,0,0,0,0,0],"id":52,"left_children":[1,3,5,-1,-1,-1,-1],"loss_changes":[3.6865336E-1,1.0864806E0,7.593961E-1,0E0,0E0,0E0,0E0],"parents":[2147483647,0,0,1,1,2,2],"right_children":[2,4,6,-1,-1,-1,-1],"split_conditions":[1.5114162E1,1.5074539E1,2E0,-8.412903E-3,-6.606403E-1,1.5047552E-1,-1.788511E-1],"split_indices":[9,9,8,0,0,0,0],"split_type":[0,0,0,0,0,0,0],"sum_hessian":[5.2643463E1,1.8952677E1,3.369079E1,1.6939573E1,2.0131052E0,2.5047533E1,8.643253E0],"tree_param":{"num_deleted":"0","num_feature":"12","num_nodes":"7","size_leaf_vector":"1"}},{"base_weights":[-1.3736706E-2,1.4655498E-1,-7.5954415E-2,3.765414E-2,7.937126E-1,-5.133013E-1,-4.29921E-2],"categories":[],"categories_nodes":[],"categories_segments":[],"categories_sizes":[],"default_left":[0,0,0,0,0,0,0],"id":53,"left_children":[1,3,5,-1,-1,-1,-1],"loss_changes":[5.438607E-1,1.0468315E0,5.4216504E-1,0E0,0E0,0E0,0E0],"parents":[2147483647,0,0,1,1,2,2],"right_children":[2,4,6,-1,-1,-1,-1],"split_conditions":[1.5312242E1,1.5225345E1,1.4583447E1,3.765414E-2,7.937126E-1,-5.133013E-1,-4.29921E-2],"split_indices":[11,9,9,0,0,0,0],"split_type":[0,0,0,0,0,0,0],"sum_hessian":[5.2417244E1,1.4277795E1,3.813945E1,1.3127022E1,1.1507735E0,1.6517334E0,3.6487717E1],"tree_param":{"num_deleted":"0","num_feature":"12","num_nodes":"7","size_leaf_vector":"1"}},{"base_weights":[7.513713E-3,-7.792325E-2,1.0002326E-1,-1.6806138E-1,3.546085E-1,2.3891903E-1,-1.3219447E-1],"categories":[],"categories_nodes":[],"categories_segments":[],"categories_sizes":[],"default_left":[0,0,0,0,0,0,0],"id":54,"left_children":[1,3,5,-1,-1,-1,-1],"loss_changes":[4.280584E-1,1.1592497E0,8.6914563E-1,0E0,0E0,0E0,0E0],"parents":[2147483647,0,0,1,1,2,2],"right_children":[2,4,6,-1,-1,-1,-1],"split_conditions":[1.2388394E1,1E0,1.73E5,-1.6806138E-1,3.546085E-1,2.3891903E-1,-1.3219447E-1],"split_indices":[10,4,5,0,0,0,0],"split_type":[0,0,0,0,0,0,0],"sum_hessian":[5.217286E1,2.720522E1,2.496764E1,2.3019487E1,4.185734E0,1.5605003E1,9.362637E0],"tree_param":{"num_deleted":"0","num_feature":"12","num_nodes":"7","size_leaf_vector":"1"}},{"base_weights":[9.165788E-3,-2.4134007E-1,3.7109632E-2,-6.0059446E-1,2.6601258E-1,1.0622132E-2,3.6746716E-1],"categories":[],"categories_nodes":[],"categories_segments":[],"categories_sizes":[],"default_left":[0,0,0,0,0,0,0],"id":55,"left_children":[1,3,5,-1,-1,-1,-1],"loss_changes":[3.7269706E-1,1.1345298E0,4.1273862E-1,0E0,0E0,0E0,0E0],"parents":[2147483647,0,0,1,1,2,2],"right_children":[2,4,6,-1,-1,-1,-1],"split_conditions":[1E0,1.5403203E1,3.12E5,-6.0059446E-1,2.6601258E-1,1.0622132E-2,3.6746716E-1],"split_indices":[7,9,5,0,0,0,0],"split_type":[0,0,0,0,0,0,0],"sum_hessian":[5.0962284E1,4.347952E0,4.6614334E1,2.437902E0,1.91005E0,4.4109837E1,2.5044975E0],"tree_param":{"num_deleted":"0","num_feature":"12","num_nodes":"7","size_leaf_vector":"1"}},{"base_weights":[-4.526067E-3,1.8333471E-1,-5.1531587E-2,2.5202189E-2,5.5047005E-1,-3.655862E-1,-1.01685785E-2],"categories":[],"categories_nodes":[],"categories_segments":[],"categories_sizes":[],"default_left":[0,0,0,0,0,0,0],"id":56,"left_children":[1,3,5,-1,-1,-1,-1],"loss_changes":[4.6021366E-1,5.91984E-1,5.368171E-1,0E0,0E0,0E0,0E0],"parents":[2147483647,0,0,1,1,2,2],"right_children":[2,4,6,-1,-1,-1,-1],"split_conditions":[1.516799E1,1.5095333E1,3.6E2,2.5202189E-2,5.5047005E-1,-3.655862E-1,-1.01685785E-2],"split_indices":[11,11,6,0,0,0,0],"split_type":[0,0,0,0,0,0,0],"sum_hessian":[5.0046543E1,9.435728E0,4.0610813E1,7.3420196E0,2.0937085E0,3.8139985E0,3.6796814E1],"tree_param":{"num_deleted":"0","num_feature":"12","num_nodes":"7","size_leaf_vector":"1"}},{"base_weights":[5.2888743E-3,-4.0803913E-2,1.8927447E-1,-8.1853755E-3,-5.562683E-1,4.5750788E-1,-2.2927636E-1],"categories":[],"categories_nodes":[],"categories_segments":[],"categories_sizes":[],"default_left":[0,0,0,0,0,0,0],"id":57,"left_children":[1,3,5,-1,-1,-1,-1],"loss_changes":[4.4014984E-1,6.9487226E-1,1.2716757E0,0E0,0E0,0E0,0E0],"parents":[2147483647,0,0,1,1,2,2],"right_children":[2,4,6,-1,-1,-1,-1],"split_conditions":[1.4770252E1,1.4684906E1,1E0,-8.1853755E-3,-5.562683E-1,4.5750788E-1,-2.2927636E-1],"split_indices":[10,10,2,0,0,0,0],"split_type":[0,0,0,0,0,0,0],"sum_hessian":[4.9991257E1,4.0598568E1,9.392689E0,3.913781E1,1.4607576E0,5.667516E0,3.7251728E0],"tree_param":{"num_deleted":"0","num_feature":"12","num_nodes":"7","size_leaf_vector":"1"}},{"base_weights":[-3.702074E-3,-1.0465676E-1,5.7045035E-2,-1.984182E-1,5.2458286E-1,3.6097905E-1,8.745731E-3],"categories":[],"categories_nodes":[],"categories_segments":[],"categories_sizes":[],"default_left":[0,0,0,0,0,0,0],"id":58,"left_children":[1,3,5,-1,-1,-1,-1],"loss_changes":[3.162459E-1,1.2462649E0,4.700339E-1,0E0,0E0,0E0,0E0],"parents":[2147483647,0,0,1,1,2,2],"right_children":[2,4,6,-1,-1,-1,-1],"split_conditions":[1E0,3E0,2.4023334E2,-1.984182E-1,5.2458286E-1,3.6097905E-1,8.745731E-3],"split_indices":[8,2,6,0,0,0,0],"split_type":[0,0,0,0,0,0,0],"sum_hessian":[4.959362E1,1.835947E1,3.123415E1,1.6574427E1,1.7850446E0,3.3952153E0,2.7838934E1],"tree_param":{"num_deleted":"0","num_feature":"12","num_nodes":"7","size_leaf_vector":"1"}},{"base_weights":[1.579883E-2,5.2660394E-2,-2.4731569E-1,-6.1437176E-3,3.0007803E-1,3.2710096E-1,-4.7045746E-1],"categories":[],"categories_nodes":[],"categories_segments":[],"categories_sizes":[],"default_left":[0,0,0,0,0,0,0],"id":59,"left_children":[1,3,5,-1,-1,-1,-1],"loss_changes":[4.962594E-1,6.4966273E-1,9.6114576E-1,0E0,0E0,0E0,0E0],"parents":[2147483647,0,0,1,1,2,2],"right_children":[2,4,6,-1,-1,-1,-1],"split_conditions":[1.6235878E1,1.86E5,1.8827177E5,-6.1437176E-3,3.0007803E-1,3.2710096E-1,-4.7045746E-1],"split_indices":[11,5,5,0,0,0,0],"split_type":[0,0,0,0,0,0,0],"sum_hessian":[4.882421E1,4.352618E1,5.2980313E0,3.5955704E1,7.5704756E0,1.3519422E0,3.946089E0],"tree_param":{"num_deleted":"0","num_feature":"12","num_nodes":"7","size_leaf_vector":"1"}},{"base_weights":[3.6510513E-3,6.038885E-2,-1.2990561E-1,-1.1268367E-2,6.287364E-1,-3.5502303E-1,3.0425042E-1],"categories":[],"categories_nodes":[],"categories_segments":[],"categories_sizes":[],"default_left":[0,0,0,0,0,0,0],"id":60,"left_children":[1,3,5,-1,-1,-1,-1],"loss_changes":[3.8120288E-1,1.4432049E0,1.5748146E0,0E0,0E0,0E0,0E0],"parents":[2147483647,0,0,1,1,2,2],"right_children":[2,4,6,-1,-1,-1,-1],"split_conditions":[1.5560528E1,1.5480383E1,1E0,-1.1268367E-2,6.287364E-1,-3.5502303E-1,3.0425042E-1],"split_indices":[9,9,2,0,0,0,0],"split_type":[0,0,0,0,0,0,0],"sum_hessian":[4.8270554E1,3.4262806E1,1.400775E1,3.1297049E1,2.9657562E0,9.344653E0,4.663096E0],"tree_param":{"num_deleted":"0","num_feature":"12","num_nodes":"7","size_leaf_vector":"1"}},{"base_weights":[1.5385233E-2,7.20634E-2,-7.7600256E-2,5.1045087E-3,5.000783E-1,-2.153746E-1,2.207143E-1],"categories":[],"categories_nodes":[],"categories_segments":[],"categories_sizes":[],"default_left":[0,0,0,0,0,0,0],"id":61,"left_children":[1,3,5,-1,-1,-1,-1],"loss_changes":[2.6324055E-1,8.827946E-1,8.2824576E-1,0E0,0E0,0E0,0E0],"parents":[2147483647,0,0,1,1,2,2],"right_children":[2,4,6,-1,-1,-1,-1],"split_conditions":[1E0,1.6196814E1,1.5480383E1,5.1045087E-3,5.000783E-1,-2.153746E-1,2.207143E-1],"split_indices":[2,11,9,0,0,0,0],"split_type":[0,0,0,0,0,0,0],"sum_hessian":[4.7887356E1,2.9892036E1,1.7995321E1,2.6723347E1,3.168689E0,1.25002165E1,5.4951034E0],"tree_param":{"num_deleted":"0","num_feature":"12","num_nodes":"7","size_leaf_vector":"1"}},{"base_weights":[1.1755879E-2,8.46569E-2,-2.5233576E-1,1.1174037E-1,-4.550545E-1,-4.8848516E-1,-2.7662234E-2],"categories":[],"categories_nodes":[],"categories_segments":[],"categories_sizes":[],"default_left":[0,0,0,0,0,0,0],"id":62,"left_children":[1,3,5,-1,-1,-1,-1],"loss_changes":[9.5927477E-1,6.198447E-1,5.589631E-1,0E0,0E0,0E0,0E0],"parents":[2147483647,0,0,1,1,2,2],"right_children":[2,4,6,-1,-1,-1,-1],"split_conditions":[1.5989808E1,3.7111612E2,1E0,1.1174037E-1,-4.550545E-1,-4.8848516E-1,-2.7662234E-2],"split_indices":[11,6,1,0,0,0,0],"split_type":[0,0,0,0,0,0,0],"sum_hessian":[4.771629E1,3.792637E1,9.789922E0,3.6869183E1,1.0571841E0,4.200582E0,5.5893393E0],"tree_param":{"num_deleted":"0","num_feature":"12","num_nodes":"7","size_leaf_vector":"1"}},{"base_weights":[-1.925147E-2,6.151143E-2,-9.505927E-2,-2.4876479E-2,4.584317E-1,-7.330808E-1,-7.5151552E-3],"categories":[],"categories_nodes":[],"categories_segments":[],"categories_sizes":[],"default_left":[0,0,0,0,0,0,0],"id":63,"left_children":[1,3,5,-1,-1,-1,-1],"loss_changes":[2.9892322E-1,8.2694227E-1,1.3956056E0,0E0,0E0,0E0,0E0],"parents":[2147483647,0,0,1,1,2,2],"right_children":[2,4,6,-1,-1,-1,-1],"split_conditions":[1.5530749E1,1.5355813E1,1.5567968E1,-2.4876479E-2,4.584317E-1,-7.330808E-1,-7.5151552E-3],"split_indices":[11,9,11,0,0,0,0],"split_type":[0,0,0,0,0,0,0],"sum_hessian":[4.686901E1,2.2784168E1,2.4084845E1,1.9481445E1,3.3027227E0,2.0162885E0,2.2068556E1],"tree_param":{"num_deleted":"0","num_feature":"12","num_nodes":"7","size_leaf_vector":"1"}},{"base_weights":[-3.707837E-3,-2.8317937E-1,2.6826128E-2,5.3279355E-2,-4.8225632E-1,1.2693967E-1,-5.989983E-2],"categories":[],"categories_nodes":[],"categories_segments":[],"categories_sizes":[],"default_left":[0,0,0,0,0,0,0],"id":64,"left_children":[1,3,5,-1,-1,-1,-1],"loss_changes":[4.152945E-1,3.4668908E-1,3.89497E-1,0E0,0E0,0E0,0E0],"parents":[2147483647,0,0,1,1,2,2],"right_children":[2,4,6,-1,-1,-1,-1],"split_conditions":[1E0,1E0,1.5209492E1,5.3279355E-2,-4.8225632E-1,1.2693967E-1,-5.989983E-2],"split_indices":[7,1,9,0,0,0,0],"split_type":[0,0,0,0,0,0,0],"sum_hessian":[4.6776867E1,3.7923129E0,4.2984554E1,1.6819788E0,2.110334E0,1.9737062E1,2.3247492E1],"tree_param":{"num_deleted":"0","num_feature":"12","num_nodes":"7","size_leaf_vector":"1"}},{"base_weights":[-9.64875E-3,-1.0377798E-1,6.864503E-2,-4.0808924E-2,-4.4946665E-1,5.200901E-1,2.350703E-2],"categories":[],"categories_nodes":[],"categories_segments":[],"categories_sizes":[],"default_left":[0,0,0,0,0,0,0],"id":65,"left_children":[1,3,5,-1,-1,-1,-1],"loss_changes":[3.5470417E-1,4.564976E-1,5.2470124E-1,0E0,0E0,0E0,0E0],"parents":[2147483647,0,0,1,1,2,2],"right_children":[2,4,6,-1,-1,-1,-1],"split_conditions":[1.5473929E1,1.5411053E1,1.5530749E1,-4.0808924E-2,-4.4946665E-1,5.200901E-1,2.350703E-2],"split_indices":[11,11,11,0,0,0,0],"split_type":[0,0,0,0,0,0,0],"sum_hessian":[4.616321E1,2.0813974E1,2.5349237E1,1.8552574E1,2.2614005E0,1.3477337E0,2.4001505E1],"tree_param":{"num_deleted":"0","num_feature":"12","num_nodes":"7","size_leaf_vector":"1"}},{"base_weights":[4.77983E-3,-1.9917544E-2,2.3270933E-1,7.6635936E-3,-2.9071876E-1,-2.4182901E-1,4.4435853E-1],"categories":[],"categories_nodes":[],"categories_segments":[],"categories_sizes":[],"default_left":[0,0,0,0,0,0,0],"id":66,"left_children":[1,3,5,-1,-1,-1,-1],"loss_changes":[2.702563E-1,3.2708484E-1,5.7868636E-1,0E0,0E0,0E0,0E0],"parents":[2147483647,0,0,1,1,2,2],"right_children":[2,4,6,-1,-1,-1,-1],"split_conditions":[2.75E5,1.5281771E1,1E0,7.6635936E-3,-2.9071876E-1,-2.4182901E-1,4.4435853E-1],"split_indices":[5,10,8,0,0,0,0],"split_type":[0,0,0,0,0,0,0],"sum_hessian":[4.6185833E1,4.2493996E1,3.6918354E0,3.944792E1,3.0460753E0,1.094736E0,2.5970993E0],"tree_param":{"num_deleted":"0","num_feature":"12","num_nodes":"7","size_leaf_vector":"1"}},{"base_weights":[3.8370548E-4,-4.024194E-2,1.0358962E-1,-4.1737923E-4,-5.1266533E-1,3.7218714E-1,-7.594427E-2],"categories":[],"categories_nodes":[],"categories_segments":[],"categories_sizes":[],"default_left":[0,0,0,0,0,0,0],"id":67,"left_children":[1,3,5,-1,-1,-1,-1],"loss_changes":[2.0098038E-1,6.470292E-1,6.8111026E-1,0E0,0E0,0E0,0E0],"parents":[2147483647,0,0,1,1,2,2],"right_children":[2,4,6,-1,-1,-1,-1],"split_conditions":[1.4505152E1,1.4425276E1,1.5725497E1,-4.1737923E-4,-5.1266533E-1,3.7218714E-1,-7.594427E-2],"split_indices":[10,10,11,0,0,0,0],"split_type":[0,0,0,0,0,0,0],"sum_hessian":[4.5940327E1,3.340211E1,1.2538219E1,3.1728342E1,1.673767E0,4.5932555E0,7.9449635E0],"tree_param":{"num_deleted":"0","num_feature":"12","num_nodes":"7","size_leaf_vector":"1"}},{"base_weights":[-2.910925E-3,-5.4111354E-2,1.4164586E-1,1.3103429E-2,-3.9649576E-1,2.7587238E-1,-1.1909936E-1],"categories":[],"categories_nodes":[],"categories_segments":[],"categories_sizes":[],"default_left":[0,0,0,0,0,0,0],"id":68,"left_children":[1,3,5,-1,-1,-1,-1],"loss_changes":[3.526364E-1,8.1393087E-1,4.6919072E-1,0E0,0E0,0E0,0E0],"parents":[2147483647,0,0,1,1,2,2],"right_children":[2,4,6,-1,-1,-1,-1],"split_conditions":[1.5892073E1,1.73E5,1.6118095E1,1.3103429E-2,-3.9649576E-1,2.7587238E-1,-1.1909936E-1],"split_indices":[11,5,9,0,0,0,0],"split_type":[0,0,0,0,0,0,0],"sum_hessian":[4.560918E1,3.4142097E1,1.1467083E1,2.9343327E1,4.798771E0,7.53183E0,3.935253E0],"tree_param":{"num_deleted":"0","num_feature":"12","num_nodes":"7","size_leaf_vector":"1"}},{"base_weights":[-4.414136E-3,-1.9725185E-2,3.269398E-1,4.2485404E-3,-2.4812919E-1],"categories":[],"categories_nodes":[],"categories_segments":[],"categories_sizes":[],"default_left":[0,0,0,0,0],"id":69,"left_children":[1,3,-1,-1,-1],"loss_changes":[2.4028552E-1,2.474513E-1,0E0,0E0,0E0],"parents":[2147483647,0,0,1,1],"right_children":[2,4,-1,-1,-1],"split_conditions":[1.6786919E1,1.6235878E1,3.269398E-1,4.2485404E-3,-2.4812919E-1],"split_indices":[9,11,0,0,0],"split_type":[0,0,0,0,0],"sum_hessian":[4.5090916E1,4.3998333E1,1.0925838E0,4.0707043E1,3.291291E0],"tree_param":{"num_deleted":"0","num_feature":"12","num_nodes":"5","size_leaf_vector":"1"}},{"base_weights":[1.9370005E-3,-4.3475155E-2,1.2659168E-1,-1.5132086E-1,5.699739E-2,5.3982186E-1,-1.6642565E-2],"categories":[],"categories_nodes":[],"categories_segments":[],"categories_sizes":[],"default_left":[0,0,0,0,0,0,0],"id":70,"left_children":[1,3,5,-1,-1,-1,-1],"loss_changes":[2.66084E-1,3.8228548E-1,7.516472E-1,0E0,0E0,0E0,0E0],"parents":[2147483647,0,0,1,1,2,2],"right_children":[2,4,6,-1,-1,-1,-1],"split_conditions":[1.8E5,1.5140461E1,1.5339749E1,-1.5132086E-1,5.699739E-2,5.3982186E-1,-1.6642565E-2],"split_indices":[5,9,9,0,0,0,0],"split_type":[0,0,0,0,0,0,0],"sum_hessian":[4.5032124E1,3.3484745E1,1.15473795E1,1.5905708E1,1.7579037E1,2.2596102E0,9.287769E0],"tree_param":{"num_deleted":"0","num_feature":"12","num_nodes":"7","size_leaf_vector":"1"}},{"base_weights":[1.0386819E-2,5.6226004E-2,-1.248214E-1,-2.0558631E-2,4.0624693E-1,1.0782456E-1,-2.289552E-1],"categories":[],"categories_nodes":[],"categories_segments":[],"categories_sizes":[],"default_left":[0,0,0,0,0,0,0],"id":71,"left_children":[1,3,5,-1,-1,-1,-1],"loss_changes":[2.9155433E-1,9.483416E-1,3.138085E-1,0E0,0E0,0E0,0E0],"parents":[2147483647,0,0,1,1,2,2],"right_children":[2,4,6,-1,-1,-1,-1],"split_conditions":[1.4545346E1,1.4164053E1,1.4926051E1,-2.0558631E-2,4.0624693E-1,1.0782456E-1,-2.289552E-1],"split_indices":[10,10,9,0,0,0,0],"split_type":[0,0,0,0,0,0,0],"sum_hessian":[4.490896E1,3.3974762E1,1.09341955E1,2.8634445E1,5.3403177E0,3.369943E0,7.564253E0],"tree_param":{"num_deleted":"0","num_feature":"12","num_nodes":"7","size_leaf_vector":"1"}},{"base_weights":[8.513789E-3,2.3554486E-1,-1.6965048E-2,-1.11215964E-1,3.9727706E-1,-2.0496705E-1,2.8045127E-2],"categories":[],"categories_nodes":[],"categories_segments":[],"categories_sizes":[],"default_left":[0,0,0,0,0,0,0],"id":72,"left_children":[1,3,5,-1,-1,-1,-1],"loss_changes":[2.6875243E-1,3.0695716E-1,3.6186814E-1,0E0,0E0,0E0,0E0],"parents":[2147483647,0,0,1,1,2,2],"right_children":[2,4,6,-1,-1,-1,-1],"split_conditions":[1.4945298E1,1.468387E1,1.4970188E1,-1.11215964E-1,3.9727706E-1,-2.0496705E-1,2.8045127E-2],"split_indices":[11,9,9,0,0,0,0],"split_type":[0,0,0,0,0,0,0],"sum_hessian":[4.477007E1,3.685492E0,4.108458E1,1.2715592E0,2.4139328E0,7.2496943E0,3.3834885E1],"tree_param":{"num_deleted":"0","num_feature":"12","num_nodes":"7","size_leaf_vector":"1"}},{"base_weights":[3.1687145E-3,-2.5666058E-2,1.7920662E-1,2.9755991E-2,-1.8382628E-1,5.165923E-1,-2.3157495E-1],"categories":[],"categories_nodes":[],"categories_segments":[],"categories_sizes":[],"default_left":[0,0,0,0,0,0,0],"id":73,"left_children":[1,3,5,-1,-1,-1,-1],"loss_changes":[2.3661807E-1,3.5740957E-1,1.0285923E0,0E0,0E0,0E0,0E0],"parents":[2147483647,0,0,1,1,2,2],"right_children":[2,4,6,-1,-1,-1,-1],"split_conditions":[1.6190416E1,1.552606E1,1E0,2.9755991E-2,-1.8382628E-1,5.165923E-1,-2.3157495E-1],"split_indices":[11,9,2,0,0,0,0],"split_type":[0,0,0,0,0,0,0],"sum_hessian":[4.4708813E1,3.9150257E1,5.5585575E0,2.9592426E1,9.557831E0,2.910502E0,2.6480556E0],"tree_param":{"num_deleted":"0","num_feature":"12","num_nodes":"7","size_leaf_vector":"1"}},{"base_weights":[3.7947705E-3,-7.32683E-2,8.07268E-2,-2.2691626E-2,-5.68573E-1,5.66694E-3,3.5551628E-1],"categories":[],"categories_nodes":[],"categories_segments":[],"categories_sizes":[],"default_left":[0,0,0,0,0,0,0],"id":74,"left_children":[1,3,5,-1,-1,-1,-1],"loss_changes":[2.7766463E-1,5.7386947E-1,4.8090976E-1,0E0,0E0,0E0,0E0],"parents":[2147483647,0,0,1,1,2,2],"right_children":[2,4,6,-1,-1,-1,-1],"split_conditions":[1.55499935E1,1.552606E1,2E0,-2.2691626E-2,-5.68573E-1,5.66694E-3,3.5551628E-1],"split_indices":[11,11,2,0,0,0,0],"split_type":[0,0,0,0,0,0,0],"sum_hessian":[4.483697E1,2.2423199E1,2.241377E1,2.1294577E1,1.1286235E0,1.8406565E1,4.007205E0],"tree_param":{"num_deleted":"0","num_feature":"12","num_nodes":"7","size_leaf_vector":"1"}},{"base_weights":[-3.4380786E-3,1.3894311E-2,-3.0313608E-1,-6.6655E-3,4.138349E-1],"categories":[],"categories_nodes":[],"categories_segments":[],"categories_sizes":[],"default_left":[0,0,0,0,0],"id":75,"left_children":[1,3,-1,-1,-1],"loss_changes":[2.3963507E-1,3.6291417E-1,0E0,0E0,0E0],"parents":[2147483647,0,0,1,1],"right_children":[2,4,-1,-1,-1],"split_conditions":[1.6715008E1,3.12E5,-3.0313608E-1,-6.6655E-3,4.138349E-1],"split_indices":[11,5,0,0,0],"split_type":[0,0,0,0,0],"sum_hessian":[4.432178E1,4.2800163E1,1.5216165E0,4.164276E1,1.1574024E0],"tree_param":{"num_deleted":"0","num_feature":"12","num_nodes":"5","size_leaf_vector":"1"}},{"base_weights":[3.1897186E-3,2.5695326E-2,-1.9059741E-1,-6.6470606E-3,2.4188066E-1,1.1338884E-1,-3.4043503E-1],"categories":[],"categories_nodes":[],"categories_segments":[],"categories_sizes":[],"default_left":[0,0,0,0,0,0,0],"id":76,"left_children":[1,3,5,-1,-1,-1,-1],"loss_changes":[2.0217301E-1,2.911293E-1,2.5839117E-1,0E0,0E0,0E0,0E0],"parents":[2147483647,0,0,1,1,2,2],"right_children":[2,4,6,-1,-1,-1,-1],"split_conditions":[1.5281771E1,1.4731801E1,1.5114162E1,-6.6470606E-3,2.4188066E-1,1.1338884E-1,-3.4043503E-1],"split_indices":[10,10,9,0,0,0,0],"split_type":[0,0,0,0,0,0,0],"sum_hessian":[4.4233227E1,4.040784E1,3.8253891E0,3.5992447E1,4.415394E0,1.3433317E0,2.4820573E0],"tree_param":{"num_deleted":"0","num_feature":"12","num_nodes":"7","size_leaf_vector":"1"}},{"base_weights":[1.2379573E-3,-9.6464396E-2,3.743073E-2,-2.2190465E-1,4.275458E-1,4.4869354E-1,-3.950818E-3],"categories":[],"categories_nodes":[],"categories_segments":[],"categories_sizes":[],"default_left":[0,0,0,0,0,0,0],"id":77,"left_children":[1,3,5,-1,-1,-1,-1],"loss_changes":[1.6352846E-1,9.167825E-1,5.7564545E-1,0E0,0E0,0E0,0E0],"parents":[2147483647,0,0,1,1,2,2],"right_children":[2,4,6,-1,-1,-1,-1],"split_conditions":[1E5,1.4357253E1,1.1E5,-2.2190465E-1,4.275458E-1,4.4869354E-1,-3.950818E-3],"split_indices":[5,10,5,0,0,0,0],"split_type":[0,0,0,0,0,0,0],"sum_hessian":[4.422408E1,1.1503931E1,3.2720146E1,9.747137E0,1.756794E0,2.0914838E0,3.0628664E1],"tree_param":{"num_deleted":"0","num_feature":"12","num_nodes":"7","size_leaf_vector":"1"}},{"base_weights":[1.6972948E-2,1.279214E-1,-3.0156884E-2,4.8728603E-1,2.9610762E-2,3.8755093E-2,-3.060162E-1],"categories":[],"categories_nodes":[],"categories_segments":[],"categories_sizes":[],"default_left":[0,0,0,0,0,0,0],"id":78,"left_children":[1,3,5,-1,-1,-1,-1],"loss_changes":[2.38363E-1,4.6469474E-1,6.2560904E-1,0E0,0E0,0E0,0E0],"parents":[2147483647,0,0,1,1,2,2],"right_children":[2,4,6,-1,-1,-1,-1],"split_conditions":[1.5312242E1,1.4636015E1,1E0,4.8728603E-1,2.9610762E-2,3.8755093E-2,-3.060162E-1],"split_indices":[11,9,3,0,0,0,0],"split_type":[0,0,0,0,0,0,0],"sum_hessian":[4.3847214E1,1.25616255E1,3.128559E1,1.8483981E0,1.0713227E1,2.5720022E1,5.5655665E0],"tree_param":{"num_deleted":"0","num_feature":"12","num_nodes":"7","size_leaf_vector":"1"}},{"base_weights":[7.315811E-3,-3.9235958E-1,3.350791E-2,-1.718231E-1,5.422342E-2],"categories":[],"categories_nodes":[],"categories_segments":[],"categories_sizes":[],"default_left":[0,0,0,0,0],"id":79,"left_children":[1,-1,3,-1,-1],"loss_changes":[4.8335347E-1,0E0,1.925413E-1,0E0,0E0],"parents":[2147483647,0,0,2,2],"right_children":[2,-1,4,-1,-1],"split_conditions":[1.449453E1,-3.9235958E-1,1E0,-1.718231E-1,5.422342E-2],"split_indices":[9,0,7,0,0],"split_type":[0,0,0,0,0],"sum_hessian":[4.3917E1,1.8412087E0,4.207579E1,3.1874585E0,3.8888332E1],"tree_param":{"num_deleted":"0","num_feature":"12","num_nodes":"5","size_leaf_vector":"1"}},{"base_weights":[-1.2223751E-2,-6.1776705E-2,5.5759314E-2,-1.4549059E-1,1.9606523E-1,1.1707949E-1,-4.3870905E-1],"categories":[],"categories_nodes":[],"categories_segments":[],"categories_sizes":[],"default_left":[0,0,0,0,0,0,0],"id":80,"left_children":[1,3,5,-1,-1,-1,-1],"loss_changes":[1.5252918E-1,5.9127945E-1,6.3302207E-1,0E0,0E0,0E0,0E0],"parents":[2147483647,0,0,1,1,2,2],"right_children":[2,4,6,-1,-1,-1,-1],"split_conditions":[1.5364561E1,1E0,3E0,-1.4549059E-1,1.9606523E-1,1.1707949E-1,-4.3870905E-1],"split_indices":[9,3,2,0,0,0,0],"split_type":[0,0,0,0,0,0,0],"sum_hessian":[4.3255E1,2.5071583E1,1.8183418E1,1.9255583E1,5.8159986E0,1.6856256E1,1.3271623E0],"tree_param":{"num_deleted":"0","num_feature":"12","num_nodes":"7","size_leaf_vector":"1"}},{"base_weights":[-4.111095E-3,6.63827E-2,-1.2273402E-1,2.90279E-2,3.852985E-1,-3.7367663E-1,-2.7966829E-2],"categories":[],"categories_nodes":[],"categories_segments":[],"categories_sizes":[],"default_left":[0,0,0,0,0,0,0],"id":81,"left_children":[1,3,5,-1,-1,-1,-1],"loss_changes":[3.7929434E-1,3.2820272E-1,3.9133814E-1,0E0,0E0,0E0,0E0],"parents":[2147483647,0,0,1,1,2,2],"right_children":[2,4,6,-1,-1,-1,-1],"split_conditions":[1.572993E1,1.565828E1,1.5828011E1,2.90279E-2,3.852985E-1,-3.7367663E-1,-2.7966829E-2],"split_indices":[11,11,11,0,0,0,0],"split_type":[0,0,0,0,0,0,0],"sum_hessian":[4.3383995E1,2.748872E1,1.5895275E1,2.5583168E1,1.9055514E0,3.5504954E0,1.234478E1],"tree_param":{"num_deleted":"0","num_feature":"12","num_nodes":"7","size_leaf_vector":"1"}},{"base_weights":[1.5580152E-3,-3.0277928E-2,1.3234621E-1,2.0176984E-2,-2.3644859E-1,3.028292E-1,-2.8050062E-1],"categories":[],"categories_nodes":[],"categories_segments":[],"categories_sizes":[],"default_left":[0,0,0,0,0,0,0],"id":82,"left_children":[1,3,5,-1,-1,-1,-1],"loss_changes":[1.8871896E-1,3.843631E-1,7.09287E-1,0E0,0E0,0E0,0E0],"parents":[2147483647,0,0,1,1,2,2],"right_children":[2,4,6,-1,-1,-1,-1],"split_conditions":[2E0,1.58061075E1,1E0,2.0176984E-2,-2.3644859E-1,3.028292E-1,-2.8050062E-1],"split_indices":[2,9,3,0,0,0,0],"split_type":[0,0,0,0,0,0,0],"sum_hessian":[4.3361717E1,3.5491108E1,7.870609E0,2.9238003E1,6.253107E0,5.7589607E0,2.111648E0],"tree_param":{"num_deleted":"0","num_feature":"12","num_nodes":"7","size_leaf_vector":"1"}},{"base_weights":[-2.4697345E-3,-5.724284E-2,1.9254619E-1,-3.0899963E-3,-3.3561438E-1,5.9923166E-1,6.336994E-2],"categories":[],"categories_nodes":[],"categories_segments":[],"categories_sizes":[],"default_left":[0,0,0,0,0,0,0],"id":83,"left_children":[1,3,5,-1,-1,-1,-1],"loss_changes":[4.798996E-1,5.271955E-1,4.797244E-1,0E0,0E0,0E0,0E0],"parents":[2147483647,0,0,1,1,2,2],"right_children":[2,4,6,-1,-1,-1,-1],"split_conditions":[1.5671808E1,1.85E5,1.5798854E1,-3.0899963E-3,-3.3561438E-1,5.9923166E-1,6.336994E-2],"split_indices":[9,5,11,0,0,0,0],"split_type":[0,0,0,0,0,0,0],"sum_hessian":[4.2895714E1,3.4041206E1,8.854506E0,2.9343908E1,4.6973E0,1.2572955E0,7.5972104E0],"tree_param":{"num_deleted":"0","num_feature":"12","num_nodes":"7","size_leaf_vector":"1"}},{"base_weights":[9.844993E-3,-2.9071286E-2,1.1536292E-1,1.22301534E-1,-7.120202E-2,-1.9604513E-1,2.2746007E-1],"categories":[],"categories_nodes":[],"categories_segments":[],"categories_sizes":[],"default_left":[0,0,0,0,0,0,0],"id":84,"left_children":[1,3,5,-1,-1,-1,-1],"loss_changes":[1.8259527E-1,2.1717063E-1,4.6216923E-1,0E0,0E0,0E0,0E0],"parents":[2147483647,0,0,1,1,2,2],"right_children":[2,4,6,-1,-1,-1,-1],"split_conditions":[1.8E5,8.031962E4,1.5835865E1,1.22301534E-1,-7.120202E-2,-1.9604513E-1,2.2746007E-1],"split_indices":[5,5,11,0,0,0,0],"split_type":[0,0,0,0,0,0,0],"sum_hessian":[4.2649677E1,3.1687452E1,1.0962224E1,6.4848666E0,2.5202587E1,2.703358E0,8.258866E0],"tree_param":{"num_deleted":"0","num_feature":"12","num_nodes":"7","size_leaf_vector":"1"}},{"base_weights":[2.6560582E-3,3.2810275E-2,-2.3452626E-1,-6.020156E-2,1.2692235E-1,-4.982997E-1,1.0411618E-1],"categories":[],"categories_nodes":[],"categories_segments":[],"categories_sizes":[],"default_left":[0,0,0,0,0,0,0],"id":85,"left_children":[1,3,5,-1,-1,-1,-1],"loss_changes":[3.189542E-1,3.533068E-1,5.0132835E-1,0E0,0E0,0E0,0E0],"parents":[2147483647,0,0,1,1,2,2],"right_children":[2,4,6,-1,-1,-1,-1],"split_conditions":[1.6118095E1,1.3E5,1.6514587E1,-6.020156E-2,1.2692235E-1,-4.982997E-1,1.0411618E-1],"split_indices":[9,5,9,0,0,0,0],"split_type":[0,0,0,0,0,0,0],"sum_hessian":[4.2520313E1,3.848871E1,4.0316024E0,1.9538727E1,1.8949984E1,2.0012994E0,2.0303032E0],"tree_param":{"num_deleted":"0","num_feature":"12","num_nodes":"7","size_leaf_vector":"1"}},{"base_weights":[-8.030666E-3,8.151293E-2,-9.789018E-2,8.421379E-3,7.651053E-1,-6.143518E-1,-4.4020504E-2],"categories":[],"categories_nodes":[],"categories_segments":[],"categories_sizes":[],"default_left":[0,0,0,0,0,0,0],"id":86,"left_children":[1,3,5,-1,-1,-1,-1],"loss_changes":[3.564729E-1,1.1047335E0,5.8702433E-1,0E0,0E0,0E0,0E0],"parents":[2147483647,0,0,1,1,2,2],"right_children":[2,4,6,-1,-1,-1,-1],"split_conditions":[1.3299511E5,1.3E5,1.35E5,8.421379E-3,7.651053E-1,-6.143518E-1,-4.4020504E-2],"split_indices":[5,5,5,0,0,0,0],"split_type":[0,0,0,0,0,0,0],"sum_hessian":[4.23108E1,2.1239178E1,2.107162E1,2.0102123E1,1.1370542E0,1.0075536E0,2.0064068E1],"tree_param":{"num_deleted":"0","num_feature":"12","num_nodes":"7","size_leaf_vector":"1"}},{"base_weights":[5.381102E-3,3.4748275E-2,-1.7997354E-1,1.2603498E-2,4.1324803E-1,1.4693949E-2,-3.6190656E-1],"categories":[],"categories_nodes":[],"categories_segments":[],"categories_sizes":[],"default_left":[0,0,0,0,0,0,0],"id":87,"left_children":[1,3,5,-1,-1,-1,-1],"loss_changes":[2.3987947E-1,3.123582E-1,2.1894516E-1,0E0,0E0,0E0,0E0],"parents":[2147483647,0,0,1,1,2,2],"right_children":[2,4,6,-1,-1,-1,-1],"split_conditions":[2.44E5,2.25E5,1.627219E1,1.2603498E-2,4.1324803E-1,1.4693949E-2,-3.6190656E-1],"split_indices":[5,5,11,0,0,0,0],"split_type":[0,0,0,0,0,0,0],"sum_hessian":[4.1919533E1,3.6887665E1,5.0318685E0,3.5824963E1,1.0627025E0,2.8749354E0,2.156933E0],"tree_param":{"num_deleted":"0","num_feature":"12","num_nodes":"7","size_leaf_vector":"1"}},{"base_weights":[2.0946164E-3,-1.2256878E-2,2.8314134E-1,-2.2439298E-1,8.6072E-3],"categories":[],"categories_nodes":[],"categories_segments":[],"categories_sizes":[],"default_left":[0,0,0,0,0],"id":88,"left_children":[1,3,-1,-1,-1],"loss_changes":[1.7601389E-1,1.863126E-1,0E0,0E0,0E0],"parents":[2147483647,0,0,1,1],"right_children":[2,4,-1,-1,-1],"split_conditions":[1.6786919E1,1E0,2.8314134E-1,-2.2439298E-1,8.6072E-3],"split_indices":[9,7,0,0,0],"split_type":[0,0,0,0,0],"sum_hessian":[4.1778236E1,4.0658424E1,1.1198114E0,2.7672582E0,3.7891167E1],"tree_param":{"num_deleted":"0","num_feature":"12","num_nodes":"5","size_leaf_vector":"1"}},{"base_weights":[9.5810415E-4,2.489591E-2,-1.157897E-1,-1.5326211E-3,2.7151427E-1,-2.2263516E-1,2.6364243E-1],"categories":[],"categories_nodes":[],"categories_segments":[],"categories_sizes":[],"default_left":[0,0,0,0,0,0,0],"id":89,"left_children":[1,3,5,-1,-1,-1,-1],"loss_changes":[1.21410884E-1,2.3517661E-1,3.584292E-1,0E0,0E0,0E0,0E0],"parents":[2147483647,0,0,1,1,2,2],"right_children":[2,4,6,-1,-1,-1,-1],"split_conditions":[2.1169636E5,1.86E5,1E0,-1.5326211E-3,2.7151427E-1,-2.2263516E-1,2.6364243E-1],"split_indices":[5,5,4,0,0,0,0],"split_type":[0,0,0,0,0,0,0],"sum_hessian":[4.1411983E1,3.5018578E1,6.3934054E0,3.2526684E1,2.4918938E0,5.3110824E0,1.0823231E0],"tree_param":{"num_deleted":"0","num_feature":"12","num_nodes":"7","size_leaf_vector":"1"}},{"base_weights":[7.865046E-3,-7.560861E-3,2.0938164E-1,9.114657E-3,-2.362426E-1],"categories":[],"categories_nodes":[],"categories_segments":[],"categories_sizes":[],"default_left":[0,0,0,0,0],"id":90,"left_children":[1,3,-1,-1,-1],"loss_changes":[1.3313508E-1,1.5573761E-1,0E0,0E0,0E0],"parents":[2147483647,0,0,1,1],"right_children":[2,4,-1,-1,-1],"split_conditions":[3.12E5,1.5483595E1,2.0938164E-1,9.114657E-3,-2.362426E-1],"split_indices":[5,10,0,0,0],"split_type":[0,0,0,0,0],"sum_hessian":[4.1319042E1,3.927505E1,2.0439882E0,3.750064E1,1.7744114E0],"tree_param":{"num_deleted":"0","num_feature":"12","num_nodes":"5","size_leaf_vector":"1"}},{"base_weights":[-6.5742664E-5,1.3400753E-2,-2.1793857E-1,-1.6630942E-2,2.61033E-1],"categories":[],"categories_nodes":[],"categories_segments":[],"categories_sizes":[],"default_left":[0,0,0,0,0],"id":91,"left_children":[1,3,-1,-1,-1],"loss_changes":[1.2666062E-1,3.0673555E-1,0E0,0E0,0E0],"parents":[2147483647,0,0,1,1],"right_children":[2,4,-1,-1,-1],"split_conditions":[1.6715008E1,1.6190416E1,-2.1793857E-1,-1.6630942E-2,2.61033E-1],"split_indices":[11,11,0,0,0],"split_type":[0,0,0,0,0],"sum_hessian":[4.1174763E1,3.96618E1,1.5129623E0,3.6203987E1,3.4578123E0],"tree_param":{"num_deleted":"0","num_feature":"12","num_nodes":"5","size_leaf_vector":"1"}},{"base_weights":[8.91119E-4,4.7747273E-2,-7.713266E-2,9.343066E-2,-2.5515208E-1,-4.477587E-1,-2.1202818E-2],"categories":[],"categories_nodes":[],"categories_segments":[],"categories_sizes":[],"default_left":[0,0,0,0,0,0,0],"id":92,"left_children":[1,3,5,-1,-1,-1,-1],"loss_changes":[1.5809266E-1,3.9753664E-1,3.2693145E-1,0E0,0E0,0E0,0E0],"parents":[2147483647,0,0,1,1,2,2],"right_children":[2,4,6,-1,-1,-1,-1],"split_conditions":[1.5411053E1,1E0,1.5455788E1,9.343066E-2,-2.5515208E-1,-4.477587E-1,-2.1202818E-2],"split_indices":[9,4,9,0,0,0,0],"split_type":[0,0,0,0,0,0,0],"sum_hessian":[4.123585E1,2.6006208E1,1.5229644E1,2.3198889E1,2.8073194E0,1.0783175E0,1.4151326E1],"tree_param":{"num_deleted":"0","num_feature":"12","num_nodes":"7","size_leaf_vector":"1"}},{"base_weights":[-1.4571547E-2,-2.694221E-2,2.4017926E-1,2.557047E-3,-3.0716833E-1],"categories":[],"categories_nodes":[],"categories_segments":[],"categories_sizes":[],"default_left":[0,0,0,0,0],"id":93,"left_children":[1,3,-1,-1,-1],"loss_changes":[1.391516E-1,3.4013206E-1,0E0,0E0,0E0],"parents":[2147483647,0,0,1,1],"right_children":[2,4,-1,-1,-1],"split_conditions":[1.6786919E1,1.6235878E1,2.4017926E-1,2.557047E-3,-3.0716833E-1],"split_indices":[9,11,0,0,0],"split_type":[0,0,0,0,0],"sum_hessian":[4.1101643E1,4.005101E1,1.0506306E0,3.7132923E1,2.9180884E0],"tree_param":{"num_deleted":"0","num_feature":"12","num_nodes":"5","size_leaf_vector":"1"}},{"base_weights":[-1.519173E-3,-2.3559555E-2,1.2867966E-1,-1.3540263E-1,5.0852206E-2,-2.926849E-1,2.710614E-1],"categories":[],"categories_nodes":[],"categories_segments":[],"categories_sizes":[],"default_left":[0,0,0,0,0,0,0],"id":94,"left_children":[1,3,5,-1,-1,-1,-1],"loss_changes":[1.23681635E-1,3.1316882E-1,4.5379916E-1,0E0,0E0,0E0,0E0],"parents":[2147483647,0,0,1,1,2,2],"right_children":[2,4,6,-1,-1,-1,-1],"split_conditions":[1.4918447E1,1.5140461E1,1.3299511E5,-1.3540263E-1,5.0852206E-2,-2.926849E-1,2.710614E-1],"split_indices":[10,9,5,0,0,0,0],"split_type":[0,0,0,0,0,0,0],"sum_hessian":[4.1043716E1,3.5802097E1,5.2416186E0,1.3976046E1,2.1826052E1,1.0572268E0,4.184392E0],"tree_param":{"num_deleted":"0","num_feature":"12","num_nodes":"7","size_leaf_vector":"1"}},{"base_weights":[-1.3841756E-3,9.103319E-2,-7.757903E-2,1.5905501E-1,-3.1389692E-1,-1.3881317E-1,2.2928593E-1],"categories":[],"categories_nodes":[],"categories_segments":[],"categories_sizes":[],"default_left":[0,0,0,0,0,0,0],"id":95,"left_children":[1,3,5,-1,-1,-1,-1],"loss_changes":[3.015913E-1,5.832115E-1,4.727518E-1,0E0,0E0,0E0,0E0],"parents":[2147483647,0,0,1,1,2,2],"right_children":[2,4,6,-1,-1,-1,-1],"split_conditions":[1.27E5,1.4698038E1,1E0,1.5905501E-1,-3.1389692E-1,-1.3881317E-1,2.2928593E-1],"split_indices":[5,10,4,0,0,0,0],"split_type":[0,0,0,0,0,0,0],"sum_hessian":[4.082625E1,1.8361134E1,2.2465115E1,1.6240236E1,2.1208975E0,1.9184528E1,3.2805846E0],"tree_param":{"num_deleted":"0","num_feature":"12","num_nodes":"7","size_leaf_vector":"1"}},{"base_weights":[1.374065E-4,-5.9209473E-2,8.757914E-2,1.2261264E-1,-1.3826114E-1,1.8251632E-1,-1.6540816E-1],"categories":[],"categories_nodes":[],"categories_segments":[],"categories_sizes":[],"default_left":[0,0,0,0,0,0,0],"id":96,"left_children":[1,3,5,-1,-1,-1,-1],"loss_changes":[2.2023119E-1,3.803401E-1,4.4227463E-1,0E0,0E0,0E0,0E0],"parents":[2147483647,0,0,1,1,2,2],"right_children":[2,4,6,-1,-1,-1,-1],"split_conditions":[1.382546E1,1E0,1.85E5,1.2261264E-1,-1.3826114E-1,1.8251632E-1,-1.6540816E-1],"split_indices":[10,0,5,0,0,0,0],"split_type":[0,0,0,0,0,0,0],"sum_hessian":[4.0439457E1,2.4282051E1,1.6157406E1,7.191123E0,1.7090927E1,1.1951127E1,4.2062793E0],"tree_param":{"num_deleted":"0","num_feature":"12","num_nodes":"7","size_leaf_vector":"1"}},{"base_weights":[1.3934094E-3,-6.684857E-2,9.852227E-2,-1.3501133E-1,2.2517861E-1,4.149305E-1,4.685394E-2],"categories":[],"categories_nodes":[],"categories_segments":[],"categories_sizes":[],"default_left":[0,0,0,0,0,0,0],"id":97,"left_children":[1,3,5,-1,-1,-1,-1],"loss_changes":[2.7919993E-1,5.231087E-1,2.646354E-1,0E0,0E0,0E0,0E0],"parents":[2147483647,0,0,1,1,2,2],"right_children":[2,4,6,-1,-1,-1,-1],"split_conditions":[1.5361955E1,2E0,1.5411053E1,-1.3501133E-1,2.2517861E-1,4.149305E-1,4.685394E-2],"split_indices":[9,2,9,0,0,0,0],"split_type":[0,0,0,0,0,0,0],"sum_hessian":[4.012899E1,2.3752455E1,1.6376535E1,1.9693438E1,4.059017E0,1.3119173E0,1.5064618E1],"tree_param":{"num_deleted":"0","num_feature":"12","num_nodes":"7","size_leaf_vector":"1"}},{"base_weights":[1.4570058E-2,-1.6910465E-1,3.301679E-2,-2.7667776E-1,5.7723466E-2,1.5172295E-3,1.5304236E-1],"categories":[],"categories_nodes":[],"categories_segments":[],"categories_sizes":[],"default_left":[0,0,0,0,0,0,0],"id":98,"left_children":[1,3,5,-1,-1,-1,-1],"loss_changes":[1.4468546E-1,1.1138332E-1,1.4398333E-1,0E0,0E0,0E0,0E0],"parents":[2147483647,0,0,1,1,2,2],"right_children":[2,4,6,-1,-1,-1,-1],"split_conditions":[1E0,1E0,1.5671808E1,-2.7667776E-1,5.7723466E-2,1.5172295E-3,1.5304236E-1],"split_indices":[7,2,9,0,0,0,0],"split_type":[0,0,0,0,0,0,0],"sum_hessian":[4.0054916E1,2.910252E0,3.7144665E1,1.8249854E0,1.0852668E0,3.0225033E1,6.9196296E0],"tree_param":{"num_deleted":"0","num_feature":"12","num_nodes":"7","size_leaf_vector":"1"}},{"base_weights":[-2.1810867E-3,1.21173866E-1,-3.8310997E-2,-1.6689779E-1,2.2429967E-1,-2.5214416E-1,1.7918052E-2],"categories":[],"categories_nodes":[],"categories_segments":[],"categories_sizes":[],"default_left":[0,0,0,0,0,0,0],"id":99,"left_children":[1,3,5,-1,-1,-1,-1],"loss_changes":[1.8584672E-1,3.1819946E-1,3.9176342E-1,0E0,0E0,0E0,0E0],"parents":[2147483647,0,0,1,1,2,2],"right_children":[2,4,6,-1,-1,-1,-1],"split_conditions":[1.516799E1,1E0,1.07E5,-1.6689779E-1,2.2429967E-1,-2.5214416E-1,1.7918052E-2],"split_indices":[11,8,5,0,0,0,0],"split_type":[0,0,0,0,0,0,0],"sum_hessian":[3.965794E1,8.45092E0,3.120702E1,2.064778E0,6.3861423E0,5.772099E0,2.543492E1],"tree_param":{"num_deleted":"0","num_feature":"12","num_nodes":"7","size_leaf_vector":"1"}}]},"name":"gbtree"},"learner_model_param":{"base_score":"5.016234E-1","boost_from_average":"1","num_class":"0","num_feature":"12","num_target":"1"},"objective":{"name":"binary:logistic","reg_loss_param":{"scale_pos_weight":"1"}}},"version":[2,0,2]}